
\data\
ngram 1=200003
ngram 2=433
ngram 3=17

\1-grams:
-2.348754	</s>
-99	<s>	-0.3371602
-2.752519	<unk>
-2.619969	a	0
-7.211563	a''s
-6.221141	a'body
-6.583487	a'court
-6.240468	a'd
-7.108924	a'gha
-6.260695	a'goin
-5.804425	a'll
-5.638036	a'm
-6.221141	a'mighty
-6.885612	a'mighty's
-4.996963	a'most
-5.247992	a'n't
-6.68067	a'penny
-5.518031	a'ready
-6.202638	a'right
-7.211563	a'rony
-5.439458	a's
-5.618725	a'ter
-6.504123	a'ternoon
-6.407031	a'terwards
-5.797244	a'thegither
-6.167841	a'thing
-5.58687	a'tim
-5.929425	a've
-5.489061	aa
-6.407031	aaanthor
-6.352588	aachen
-6.352588	aad
-5.69044	aage
-6.541995	aage's
-5.819155	aagot
-6.407031	aagot's
-6.304215	aah
-6.504123	aahmes
-7.108924	aakre
-6.038639	aal
-6.629366	aalbom
-6.738858	aalst
-7.167587	aamash
-6.504123	aan
-6.629366	aana
-6.352588	aany
-6.026395	aar
-7.211563	aaraaf
-6.806065	aarau
-6.738858	aard
-4.661242	aaron
-5.448936	aaron's
-7.108924	aaronic
-5.94918	aarons
-6.583487	aaronson
-6.038639	aasa
-6.352588	aase
-6.437047	aasvogel
-6.28191	aasvogels
-5.883643	aat
-4.807896	ab
-6.038639	ab's
-6.184891	aba
-5.980608	abaat
-6.583487	abab'deh
-6.98307	ababa
-6.68067	ababde
-6.885612	ababdeh
-6.469291	abaca
-5.129115	aback
-6.504123	abaco
-6.260695	abacus
-6.407031	abad
-6.583487	abadan
-6.064211	abaddon
-5.109675	abaft
-5.533274	abaht
-5.959405	abajo
-6.051237	abalone
-6.407031	abalones
-6.151435	abana
-6.541995	abanazar
-4.567885	abandon
-5.719221	abandon'd
-4.156213	abandoned
-6.541995	abandonedly
-4.688093	abandoning
-4.867249	abandonment
-6.352588	abandonments
-5.169137	abandons
-5.573902	abaout
-6.151435	abara
-5.99161	abarak
-6.68067	abaria
-6.437047	abarian
-6.68067	abarians
-6.407031	abaris
-5.811728	abart
-6.327729	abas
-5.623473	abase
-5.303699	abased
-5.29915	abasement
-6.260695	abases
-5.94918	abash
-5.980608	abash'd
-4.796371	abashed
-6.583487	abashes
-6.378957	abashing
-6.202638	abashment
-5.858325	abasing
-6.352588	abatagati
-5.172504	abate
-4.859781	abated
-5.514302	abatement
-6.184891	abatements
-5.578181	abates
-6.002898	abati
-5.406376	abating
-5.969877	abatis
-5.858325	abattis
-6.541995	abattoir
-6.407031	abattoirs
-6.541995	abb
-7.211563	abb's
-5.69044	abba
-6.583487	abbacy
-6.885612	abbad
-6.469291	abban
-5.525586	abbas
-6.738858	abbasids
-6.184891	abbat
-6.885612	abbat's
-6.167841	abbate
-6.541995	abbati
-6.437047	abbatial
-6.28191	abbaye
-6.504123	abbazia
-4.837339	abbe
-6.541995	abbe's
-6.504123	abbeokuta
-5.797244	abbes
-5.308295	abbess
-6.98307	abbess's
-6.051237	abbesses
-5.910529	abbeville
-6.98307	abbeway
-4.798509	abbey
-6.038639	abbey's
-6.629366	abbeyfield
-5.455371	abbeys
-6.504123	abbia
-5.25611	abbie
-5.980608	abbie's
-6.68067	abbitibbi
-4.798509	abbot
-5.797244	abbot's
-5.409282	abbots
-6.541995	abbotscliff
-5.565466	abbotsford
-6.221141	abbotsmead
-7.167587	abbotsworthy
-5.189742	abbott
-5.892421	abbott's
-6.504123	abbotts
-6.051237	abbreviate
-5.354573	abbreviated
-6.221141	abbreviating
-5.468535	abbreviation
-5.623473	abbreviations
-6.68067	abbut
-5.06788	abby
-5.969877	abby's
-6.68067	abchester
-6.437047	abchurch
-5.250007	abd
-6.806065	abdal
-6.026395	abdalla
-5.489061	abdallah
-6.541995	abdallah's
-6.68067	abdalonim
-6.077586	abdel
-6.885612	abdelaziz
-6.68067	abdera
-6.437047	abderrahman
-5.776385	abdi
-6.68067	abdi's
-6.541995	abdias
-5.648023	abdicate
-5.436345	abdicated
-5.99161	abdicates
-5.910529	abdicating
-5.430183	abdication
-6.260695	abdiel
-6.629366	abdin
-5.334483	abdomen
-6.202638	abdomens
-5.529413	abdominal
-6.378957	abdon
-5.53717	abdool
-6.002898	abdoolah
-6.014488	abdslem
-6.738858	abdu
-5.427135	abdu'l
-5.910529	abduct
-5.518031	abducted
-6.064211	abducting
-5.252032	abduction
-6.167841	abductions
-5.910529	abductor
-6.064211	abductors
-4.935036	abdul
-6.151435	abdul's
-6.541995	abdulkader
-5.529413	abdulla
-6.167841	abdulla's
-5.11114	abdullah
-6.051237	abdullah's
-6.352588	abdullahi
-5.94918	abdur
-5.919874	abdurrahman
-6.469291	abdy
-4.453681	abe
-5.533274	abe's
-5.372947	abeam
-6.28191	abear
-5.281419	abed
-5.910529	abednego
-5.919874	abeille
-4.6535	abel
-5.458625	abel's
-6.167841	abela
-5.243989	abelard
-5.980608	abelard's
-6.583487	abeles
-6.221141	abell
-6.583487	abella
-5.725214	abellino
-6.469291	abelungu
-5.94918	aben
-6.504123	abenadar
-6.806065	abenaki
-6.327729	abenakis
-6.68067	abenalfange
-6.541995	abenalfarax
-6.327729	abenali
-6.437047	abenamar
-7.108924	abenaquis
-6.541995	abencerrage
-6.738858	abencerrages
-6.221141	abend
-6.98307	abendblatt
-5.959405	abeniaf
-7.211563	abenoz
-6.378957	abeokuta
-6.541995	abeout
-5.648023	aber
-6.151435	aberalva
-6.184891	abercorn
-5.430183	abercrombie
-6.184891	abercrombie's
-6.806065	abercrombies
-5.929425	abercromby
-6.504123	abercromby's
-6.583487	aberdare
-5.308295	aberdeen
-6.98307	aberdeen's
-6.014488	aberdeenshire
-6.541995	aberdonian
-6.629366	aberdour
-6.407031	aberfilly
-6.885612	aberfoil
-6.304215	aberford
-6.221141	aberfoyle
-6.583487	abergann
-6.151435	abergavenny
-6.629366	abergeldie
-6.738858	aberglyn
-6.407031	aberleigh
-6.98307	abermouth
-5.811728	abernethy
-6.541995	abernethy's
-6.221141	aberrant
-5.324777	aberration
-5.372947	aberrations
-6.806065	abershaw
-6.738858	abertaff
-6.437047	abertewey
-6.260695	aberystwith
-6.437047	aberystwyth
-6.629366	abest
-5.811728	abet
-6.221141	abets
-5.448936	abetted
-6.68067	abetter
-5.797244	abetting
-5.99161	abettor
-5.763016	abettors
-6.437047	abeuchapeta
-7.211563	abeundi
-6.077586	abey
-5.797244	abeyance
-6.504123	abgarus
-6.504123	abha
-5.232195	abhor
-5.783227	abhorr'd
-4.937981	abhorred
-5.007236	abhorrence
-5.19505	abhorrent
-6.469291	abhorrently
-6.437047	abhorreth
-5.595736	abhorring
-5.400623	abhors
-6.151435	abi
-6.68067	abiad
-6.583487	abiah
-6.407031	abiathar
-6.629366	abib
-4.709089	abide
-5.549072	abided
-6.504123	abiders
-5.033422	abides
-6.68067	abidest
-5.482111	abideth
-6.583487	abidin
-4.821238	abiding
-6.327729	abidingly
-6.327729	abie
-6.504123	abiel
-6.583487	abies
-6.806065	abiet
-5.100988	abigail
-6.002898	abigail's
-6.378957	abigails
-6.98307	abihu
-6.469291	abiit
-5.549072	abijah
-6.378957	abijah's
-6.98307	abil
-6.002898	abilene
-4.732991	abilities
-4.355029	ability
-5.737453	abimelech
-6.352588	abinadab
-5.573902	abingdon
-6.541995	abingdon's
-5.684906	abinger
-6.28191	abinger's
-5.910529	abington
-5.875039	abiram
-6.077586	abishag
-5.883643	abishai
-6.064211	abit
-6.98307	abitibi
-6.202638	abits
-4.928242	abject
-6.051237	abjection
-5.213225	abjectly
-5.910529	abjectness
-5.883643	abjuration
-6.504123	abjurations
-5.471889	abjure
-5.436345	abjured
-5.919874	abjures
-5.684906	abjuring
-6.541995	abla
-7.167587	ablage
-6.583487	ablain
-6.202638	ablano
-6.437047	ablative
-4.922503	ablaze
-4.196614	able
-6.504123	abled
-5.533274	abler
-5.71331	ablest
-6.738858	ablethorpe
-6.437047	ablett
-6.885612	ablett's
-6.68067	ablewhite
-7.108924	ablewhite's
-7.108924	abli
-5.696046	abloom
-6.504123	ablow
-5.561309	ablution
-5.341908	ablutions
-5.088275	ably
-7.108924	abnakis
-6.68067	abnegate
-6.378957	abnegated
-6.738858	abnegating
-5.334483	abnegation
-6.352588	abnegations
-4.802095	abner
-5.658246	abner's
-6.304215	abney
-6.806065	abney's
-4.914965	abnormal
-5.875039	abnormalities
-5.804425	abnormality
-5.19505	abnormally
-6.077586	abo
-4.087826	aboard
-4.393754	abode
-5.018943	abodes
-7.211563	aboegib
-6.504123	aboeza
-6.437047	abogaz
-6.184891	abogin
-5.21883	abolish
-4.873995	abolished
-5.892421	abolishes
-5.40349	abolishing
-6.240468	abolishment
-5.008393	abolition
-5.679441	abolitionism
-5.359744	abolitionist
-5.184498	abolitionists
-4.870609	abominable
-5.086885	abominably
-5.858325	abominate
-5.797244	abominated
-6.352588	abominates
-6.469291	abominating
-5.124551	abomination
-5.154301	abominations
-5.541101	abon
-6.064211	abonyi
-5.919874	aboo
-5.578181	aboon
-5.776385	aboord
-4.813036	aboot
-6.352588	abord
-5.204042	aboriginal
-6.026395	aboriginals
-5.93919	aborigine
-5.322383	aborigines
-6.68067	aborn
-6.064211	abort
-6.077586	aborted
-5.455371	abortion
-5.569664	abortions
-5.152683	abortive
-6.407031	abot
-6.469291	abott
-5.367618	abou
-6.378957	abouchal
-6.091385	aboud
-6.469291	aboudt
-6.184891	aboukir
-5.99161	aboulcassem
-6.504123	aboulfatah
-6.407031	abouna
-4.51089	abound
-4.630584	abounded
-6.240468	aboundeth
-4.740426	abounding
-4.746087	abounds
-6.738858	abousir
-3.034128	about	-0.02168987
-6.304215	about's
-6.014488	aboute
-6.167841	abouts
-6.151435	abov
-3.435616	above	-0.04565176
-6.120373	aboveboard
-6.407031	aboveground
-5.910529	abovementioned
-6.885612	abovenamed
-6.504123	abovesaid
-6.167841	abowt
-6.504123	aboyne
-6.260695	abp
-5.783227	abra
-5.969877	abracadabra
-6.378957	abradates
-6.583487	abradatus
-6.504123	abrade
-5.866601	abraded
-6.504123	abrading
-4.51089	abraham
-5.359744	abraham's
-6.105637	abrahama
-6.583487	abrahamic
-6.077586	abrahams
-6.260695	abrahamsen
-6.167841	abrahamson
-6.120373	abrahm
-5.172504	abram
-5.910529	abram's
-6.504123	abramovich
-6.68067	abramovitch
-5.892421	abrams
-6.240468	abrane
-6.469291	abrantes
-5.811728	abrasion
-5.866601	abrasions
-6.469291	abrasive
-6.885612	abravanel
-6.378957	abrazza
-4.743561	abreast
-7.108924	abregee
-6.304215	abrego
-6.885612	abrek
-6.504123	abreks
-6.68067	abri
-5.73129	abridge
-5.264384	abridged
-6.038639	abridgement
-6.352588	abridges
-6.026395	abridging
-5.553113	abridgment
-6.002898	abridgments
-6.437047	abrim
-6.806065	abris
-6.738858	abristle
-6.026395	abro
-6.504123	abroach
-4.026941	abroad
-5.94918	abrogate
-5.561309	abrogated
-6.437047	abrogates
-6.167841	abrogating
-5.980608	abrogation
-6.504123	abrosim
-7.108924	abrow
-4.696483	abrupt
-4.117462	abruptly
-5.027331	abruptness
-6.221141	abruzzi
-6.352588	abs
-6.407031	absalam
-6.98307	absalam's
-6.541995	absalem
-5.238052	absalom
-5.929425	absalom's
-6.002898	absalon
-6.629366	absaroke
-5.737453	abscess
-5.93919	abscesses
-6.051237	abscond
-5.478677	absconded
-6.98307	absconder
-5.783227	absconding
-4.195722	absence
-5.320004	absences
-4.410676	absent
-5.349463	absented
-5.595736	absentee
-5.969877	absenteeism
-5.638036	absentees
-5.674045	absenting
-4.507953	absently
-5.94918	absentminded
-5.783227	absentmindedly
-6.240468	absentmindedness
-6.077586	absents
-6.469291	absinth
-5.324777	absinthe
-7.108924	absinthe's
-6.469291	absinthes
-6.304215	absit
-6.28191	absolom
-6.541995	absolon
-6.002898	absolument
-4.330033	absolute
-3.979362	absolutely
-5.969877	absoluteness
-6.202638	absolutes
-5.080002	absolution
-6.077586	absolutions
-5.40349	absolutism
-6.135626	absolutist
-6.469291	absolutists
-5.400623	absolve
-5.143102	absolved
-5.701725	absolves
-5.701725	absolving
-6.327729	absolvo
-5.007236	absorb
-6.120373	absorb'd
-4.230217	absorbed
-5.582504	absorbedly
-5.633127	absorbent
-6.240468	absorbents
-6.327729	absorber
-6.437047	absorbers
-4.72993	absorbing
-5.743704	absorbingly
-5.075924	absorbs
-4.807167	absorption
-6.184891	absorptions
-6.304215	absorptive
-6.407031	absque
-5.157554	abstain
-5.114085	abstained
-6.184891	abstainer
-6.221141	abstainers
-5.392133	abstaining
-5.866601	abstains
-5.418117	abstemious
-6.352588	abstemiously
-5.737453	abstemiousness
-5.53717	abstention
-6.260695	abstentions
-5.011881	abstinence
-6.135626	abstinences
-5.980608	abstinent
-4.69423	abstract
-4.773526	abstracted
-4.831135	abstractedly
-6.167841	abstractedness
-5.663448	abstracting
-4.749264	abstraction
-5.011881	abstractions
-5.430183	abstractly
-6.304215	abstractness
-7.211563	abstracto
-5.565466	abstracts
-5.344412	abstruse
-6.504123	abstruseness
-6.738858	abstruser
-6.504123	abstrusities
-4.456272	absurd
-6.352588	absurder
-6.469291	absurdest
-4.88957	absurdities
-4.776911	absurdity
-4.814516	absurdly
-6.504123	absurdum
-6.738858	absyrtus
-5.804425	abt
-5.057383	abu
-6.437047	abu'l
-6.583487	abubeker
-6.327729	abubus
-6.221141	abud
-5.604786	abul
-6.202638	abulfazl
-6.437047	abuna
-4.576367	abundance
-4.576367	abundant
-4.688647	abundantly
-5.623473	abune
-6.68067	abury
-6.120373	abus'd
-4.4648	abuse
-4.61299	abused
-6.352588	abuser
-6.407031	abusers
-4.840476	abuses
-6.504123	abuseth
-6.091385	abusin
-4.970698	abusing
-6.629366	abusir
-5.175897	abusive
-6.151435	abusively
-5.797244	abut
-6.469291	abutilon
-6.541995	abutilons
-5.858325	abutment
-5.850203	abutments
-6.026395	abuts
-5.725214	abutted
-5.442595	abutting
-5.549072	aby
-6.541995	aby's
-5.901381	abydos
-6.091385	abysm
-5.392133	abysmal
-6.002898	abysmally
-6.202638	abysms
-4.896676	abyss
-5.167463	abysses
-6.806065	abyssin
-5.496124	abyssinia
-5.461904	abyssinian
-5.875039	abyssinians
-6.68067	abyssins
-6.68067	abyssmal
-6.541995	abzar
-5.324777	ac
-6.091385	aca
-5.236091	acacia
-5.386565	acacias
-6.304215	acacis
-6.327729	acad
-6.221141	academe
-6.240468	academia
-4.946936	academic
-5.412207	academical
-5.901381	academically
-5.719221	academician
-6.738858	academician's
-5.565466	academicians
-6.504123	academics
-6.151435	academie
-5.305991	academies
-6.541995	academus
-4.66333	academy
-6.469291	academy's
-5.643001	acadia
-5.701725	acadian
-5.71331	acadians
-6.151435	acadie
-5.94918	acadien
-6.68067	acadienne
-6.038639	acadiens
-6.98307	acalephae
-6.407031	acamas
-5.663448	acanthus
-5.93919	acapulco
-6.583487	acari
-6.28191	acarnania
-6.68067	acarnanian
-6.583487	acarnanians
-6.541995	acarus
-6.583487	acas
-6.504123	acasia
-7.167587	acasta
-6.469291	acasto
-6.629366	acastus
-6.437047	acatlan
-6.221141	acause
-6.541995	acc
-6.629366	accademia
-6.240468	accadian
-7.211563	accalon
-6.738858	accau
-5.553113	accede
-5.018943	acceded
-6.504123	accedent
-6.135626	accedes
-5.790179	acceding
-5.633127	accelerate
-5.077279	accelerated
-5.959405	accelerates
-5.489061	accelerating
-5.177604	acceleration
-6.378957	accelerations
-6.135626	accelerator
-6.68067	accelleration
-4.407761	accent
-5.252032	accented
-5.725214	accenting
-6.504123	accentless
-4.491793	accents
-6.504123	accentual
-5.769649	accentuate
-4.90664	accentuated
-5.819155	accentuates
-5.412207	accentuating
-5.521792	accentuation
-6.583487	accep
-4.412434	accept
-6.184891	acceptability
-4.862256	acceptable
-6.352588	acceptableness
-5.557192	acceptably
-4.533575	acceptance
-5.582504	acceptances
-5.240022	acceptation
-6.184891	acceptations
-3.908731	accepted
-6.504123	accepteth
-6.504123	acceptin
-4.453358	accepting
-6.583487	acceptor
-4.722671	accepts
-4.751181	access
-6.28191	accessaries
-5.980608	accessary
-5.929425	accesses
-5.819155	accessibility
-4.826539	accessible
-5.022518	accession
-5.518031	accessions
-6.68067	accessit
-4.965421	accessories
-5.129115	accessory
-6.541995	acciajuoli
-6.105637	accidence
-6.68067	accidens
-4.417752	accident
-4.868086	accidental
-4.537865	accidentally
-6.260695	accidentals
-5.750046	accidently
-4.620986	accidents
-6.469291	accipe
-6.407031	accius
-5.245986	acclaim
-5.207693	acclaimed
-5.73129	acclaiming
-6.014488	acclaims
-5.455371	acclamation
-5.320004	acclamations
-6.806065	acclimate
-5.790179	acclimated
-6.352588	acclimation
-6.541995	acclimatisation
-6.806065	acclimatise
-5.875039	acclimatised
-6.260695	acclimatization
-6.68067	acclimatize
-5.94918	acclimatized
-5.783227	acclivities
-5.609383	acclivity
-5.99161	accolade
-5.919874	accolon
-6.091385	accomac
-6.583487	accomack
-6.629366	accomba
-5.285785	accommodate
-4.981449	accommodated
-5.604786	accommodates
-6.260695	accommodatin
-5.093879	accommodating
-5.901381	accommodatingly
-4.739801	accommodation
-4.965421	accommodations
-6.738858	accomodate
-6.378957	accomodation
-3.689578	accompanied	-0.1891894
-4.873146	accompanies
-4.692547	accompaniment
-4.996963	accompaniments
-5.750046	accompanist
-4.725681	accompany
-6.051237	accompanyed
-4.339115	accompanying
-6.629366	accompli
-5.01305	accomplice
-6.806065	accomplice's
-5.095292	accomplices
-4.884316	accomplish
-5.71331	accomplish'd
-4.32233	accomplished
-5.175897	accomplishes
-5.11261	accomplishing
-4.790722	accomplishment
-4.712591	accomplishments
-6.68067	accompong
-6.105637	accompt
-6.541995	accomptant
-6.541995	accompts
-6.407031	accoont
-6.738858	accoramboni
-4.754396	accord
-5.478677	accordance
-5.492579	accordant
-4.638418	accorded
-6.327729	accordeon
-5.038358	accordin
-3.542427	according	-1.391883
-4.012439	accordingly
-5.561309	accordion
-6.051237	accordions
-5.092472	accords
-5.427135	accost
-4.737933	accosted
-5.381066	accosting
-5.850203	accosts
-6.135626	accouchement
-6.167841	accoucheur
-3.920206	account
-6.629366	account's
-5.719221	accountability
-5.170817	accountable
-6.437047	accountableness
-6.437047	accountancy
-5.35201	accountant
-6.437047	accountant's
-5.750046	accountants
-4.613457	accounted
-6.504123	accounteth
-6.541995	accountin
-5.052227	accounting
-4.281153	accounts
-6.105637	accoutered
-5.866601	accouterments
-5.372947	accoutred
-5.763016	accoutrement
-5.21883	accoutrements
-6.077586	accra
-6.202638	accredit
-5.154301	accredited
-6.28191	accrediting
-6.352588	accredits
-5.790179	accretion
-5.668714	accretions
-5.609383	accrue
-5.578181	accrued
-5.804425	accrues
-5.424108	accruing
-6.583487	acct
-5.164135	accumulate
-4.733605	accumulated
-5.436345	accumulates
-5.099557	accumulating
-4.961245	accumulation
-5.211373	accumulations
-6.002898	accumulative
-6.051237	accumulator
-5.875039	accumulators
-6.407031	accuracies
-4.67125	accuracy
-4.69818	accurate
-4.571258	accurately
-6.120373	accurs'd
-4.807896	accursed
-5.485572	accurst
-6.378957	accus'd
-6.541995	accusal
-4.687539	accusation
-4.833451	accusations
-6.038639	accusative
-5.959405	accusatory
-4.88869	accuse
-4.404289	accused
-7.211563	accused's
-5.266477	accuser
-6.68067	accuser's
-5.424108	accusers
-5.054797	accuses
-6.469291	accuseth
-6.064211	accusin
-4.705038	accusing
-5.260227	accusingly
-7.108924	accusings
-5.503304	accustom
-5.980608	accustom'd
-6.68067	accustomary
-6.469291	accustome
-4.290366	accustomed
-6.378957	accustomedness
-5.684906	accustoming
-5.850203	accustoms
-6.469291	accute
-5.020132	ace
-6.327729	ace's
-6.135626	aceldama
-6.541995	acephalous
-6.629366	acequia
-6.504123	acer
-6.407031	acerbities
-5.549072	acerbity
-5.465207	aces
-5.980608	acestes
-6.221141	acetate
-5.959405	acetic
-6.504123	acetous
-5.804425	acetylene
-5.071883	ach
-6.378957	achaea
-6.378957	achaea's
-5.99161	achaean
-6.064211	achaeans
-6.629366	achaemenes
-6.504123	achaemenian
-6.738858	achaemenidae
-6.304215	achaia
-6.541995	achaian
-6.541995	achaians
-5.919874	achan
-5.850203	achang
-6.28191	achanna
-6.002898	achard
-6.806065	acharnae
-6.629366	acharnement
-6.806065	acharnians
-6.221141	acharya
-5.797244	achates
-4.787228	ache
-5.027331	ached
-6.407031	acheen
-6.221141	achelous
-6.885612	achen
-7.108924	achensee
-6.105637	acherley
-5.696046	acheron
-7.211563	acherusian
-5.091068	aches
-6.504123	acheter
-6.167841	achi
-6.68067	achiet
-6.28191	achiev'd
-6.202638	achievable
-4.996963	achieve
-4.509787	achieved
-4.632529	achievement
-4.710253	achievements
-6.629366	achiever
-6.504123	achievers
-5.308295	achieves
-5.222607	achieving
-6.437047	achill
-6.135626	achillas
-5.29915	achille
-6.327729	achille's
-4.728712	achilles
-6.167841	achilles's
-6.629366	achilleus
-6.629366	achim
-5.769649	achin
-4.726891	aching
-6.051237	achingly
-6.541995	achings
-6.120373	achior
-6.304215	achish
-6.629366	achitophel
-6.98307	achivi
-5.819155	achmed
-5.305991	achmet
-6.28191	achmet's
-6.885612	achon
-6.885612	achor
-5.959405	achora
-7.211563	achradina
-5.929425	achree
-6.026395	achromatic
-6.437047	achsa
-6.28191	achsah
-6.378957	acht
-6.469291	achy
-6.583487	achyranthes
-4.893997	acid
-5.529413	acidity
-5.409282	acidly
-5.439458	acids
-5.866601	acidulated
-5.929425	acidulous
-6.541995	acie
-6.68067	acies
-6.167841	acis
-5.737453	ack
-6.504123	ackazarpses
-6.68067	acker
-5.701725	ackerman
-6.738858	ackerman's
-6.151435	ackermann
-6.105637	ackland
-6.304215	ackley
-6.806065	acklom
-6.541995	ackney
-6.202638	acknowledg'd
-4.722072	acknowledge
-4.148469	acknowledged
-5.415152	acknowledgement
-5.850203	acknowledgements
-4.9159	acknowledges
-6.469291	acknowledgeth
-4.702168	acknowledging
-4.714353	acknowledgment
-5.160832	acknowledgments
-6.629366	acknowlege
-6.407031	acknowleged
-6.68067	ackronnion
-5.811728	ackroyd
-7.108924	ackroyde
-6.541995	acks
-7.211563	ackus
-6.105637	acland
-5.573902	acme
-6.469291	acme's
-6.407031	acne
-6.469291	aco
-6.407031	acol
-6.378957	acold
-5.643001	acolyte
-5.578181	acolytes
-6.629366	acoma
-6.629366	acomb
-6.240468	acomin
-5.696046	aconite
-6.504123	aconites
-6.051237	aconitine
-6.68067	aconitum
-5.349463	acorn
-5.138389	acorns
-6.091385	acosta
-6.120373	acota
-6.504123	acount
-5.875039	acoustic
-6.407031	acoustical
-5.910529	acoustics
-6.469291	acoyapo
-6.038639	acqua
-5.21883	acquaint
-4.187073	acquaintance
-6.260695	acquaintance's
-4.543785	acquaintances
-5.245986	acquaintanceship
-5.866601	acquaintanceships
-4.519071	acquainted
-5.205863	acquainting
-5.725214	acquaints
-6.68067	acquapendente
-7.167587	acquataine
-6.014488	acquet
-7.211563	acquet's
-6.541995	acquia
-5.336944	acquiesce
-4.594293	acquiesced
-4.709089	acquiescence
-6.240468	acquiescences
-5.315282	acquiescent
-6.304215	acquiescently
-5.804425	acquiesces
-5.439458	acquiescing
-6.504123	acquiescingly
-6.885612	acquin
-6.260695	acquir'd
-6.469291	acquirable
-4.745454	acquire
-4.270858	acquired
-5.415152	acquirement
-5.11261	acquirements
-4.872299	acquires
-4.974967	acquiring
-5.004932	acquisition
-5.193273	acquisitions
-5.614029	acquisitive
-5.668714	acquisitiveness
-5.230261	acquit
-5.797244	acquits
-5.317636	acquittal
-6.184891	acquittals
-6.151435	acquittance
-4.890452	acquitted
-5.71331	acquitting
-6.583487	acra
-6.091385	acrass
-6.437047	acratus
-5.056088	acre
-6.541995	acre's
-5.47527	acreage
-6.407031	acred
-6.091385	acredale
-4.688647	acres
-6.738858	acreville
-6.407031	acri
-5.181037	acrid
-6.221141	acridity
-6.002898	acridly
-5.549072	acrimonious
-6.002898	acrimoniously
-5.418117	acrimony
-6.184891	acrisius
-6.738858	acro
-5.482111	acrobat
-6.738858	acrobat's
-5.415152	acrobatic
-5.875039	acrobatics
-5.424108	acrobats
-6.885612	acroceraunian
-6.504123	acron
-5.850203	acropolis
-3.479722	across	-0.1255555
-5.99161	acrosst
-5.084119	acrost
-5.866601	acrostic
-5.901381	acrostics
-6.504123	acshally
-3.872618	act
-6.437047	act's
-6.240468	acta
-6.352588	actable
-5.518031	actaeon
-6.352588	actaeon's
-5.628273	acte
-6.504123	acte's
-4.051814	acted
-6.151435	acteon
-6.28191	actes
-6.469291	acteth
-6.98307	acti
-6.221141	actilly
-5.272818	actin
-4.062701	acting
-5.750046	actings
-6.304215	actinia
-6.583487	actiniae
-6.077586	actinic
-6.28191	actio
-3.959872	action
-6.327729	action's
-5.99161	actionable
-6.98307	actionists
-4.293035	actions
-6.167841	actium
-6.352588	activate
-5.769649	activated
-6.304215	activating
-6.469291	activation
-4.26622	active
-4.768164	actively
-6.437047	activism
-6.738858	activite
-4.434726	activities
-4.21579	activity
-6.806065	actly
-5.037119	acton
-5.73129	acton's
-4.669124	actor
-5.763016	actor's
-4.601948	actors
-4.867249	actress
-6.352588	actress's
-5.047132	actresses
-4.056835	acts
-6.469291	actu
-4.472487	actual
-7.108924	actualise
-6.437047	actualised
-5.514302	actualities
-5.198625	actuality
-6.629366	actualization
-6.469291	actualize
-6.167841	actualized
-6.629366	actualizing
-3.876619	actually
-6.504123	actuaries
-6.202638	actuary
-5.826711	actuate
-4.876553	actuated
-5.929425	actuates
-5.73129	actuating
-6.407031	actum
-6.221141	actus
-6.583487	actyve
-6.327729	acuity
-5.242001	acumen
-6.583487	acuna
-5.510605	acushla
-4.654012	acute
-4.925363	acutely
-5.016577	acuteness
-5.959405	acuter
-6.091385	acutest
-6.504123	acworth
-4.300685	ad
-6.437047	ad'lin
-6.352588	ad'line
-6.68067	ad's
-4.795661	ada
-5.582504	ada's
-6.202638	adad
-5.397775	adage
-6.135626	adages
-5.653104	adagio
-6.304215	adagios
-5.283597	adah
-5.93919	adah's
-6.352588	adaiel
-5.054797	adair
-5.811728	adair's
-7.167587	adairs
-6.352588	adairsville
-6.583487	adairville
-6.583487	adakar
-5.737453	adalbert
-5.858325	adalgoth
-6.541995	adalia
-6.120373	adaline
-6.091385	adaly
-4.304562	adam
-5.038358	adam's
-5.445754	adamant
-5.468535	adamantine
-6.806065	adamaua
-7.108924	adamecz
-6.504123	adami
-6.407031	adamic
-7.108924	adamistic
-6.583487	adamite
-6.504123	adamites
-6.469291	adamnan
-5.763016	adamo
-4.499259	adams
-5.415152	adams's
-6.064211	adamses
-5.737453	adamson
-6.583487	adamson's
-5.725214	adan
-6.629366	adan's
-6.221141	adana
-6.221141	adapa
-5.226417	adapt
-5.290195	adaptability
-5.452142	adaptable
-4.917777	adaptation
-5.305991	adaptations
-4.413905	adapted
-6.327729	adaptedness
-6.260695	adapter
-5.155924	adapting
-6.304215	adaption
-5.819155	adaptive
-6.221141	adaptiveness
-5.448936	adapts
-6.352588	adar
-5.763016	adare
-6.240468	adare's
-6.120373	adauctus
-6.504123	adcock
-4.225609	add
-6.378957	adda
-6.327729	addams
-6.806065	addax
-7.167587	addcock
-6.135626	adde
-3.519363	added
-6.738858	addenbrooke
-5.763016	addenda
-5.969877	addendum
-5.40349	adder
-6.051237	adder's
-6.504123	adderbury
-6.184891	adderley
-5.569664	adders
-6.98307	adderwood
-6.135626	addeth
-5.959405	addick
-6.504123	addicks
-5.910529	addict
-4.951993	addicted
-5.658246	addiction
-6.583487	addictions
-6.151435	addicts
-5.061289	addie
-5.969877	addie's
-6.002898	addin
-3.962261	adding
-5.518031	addington
-6.629366	addington's
-5.776385	addio
-6.407031	addis
-6.68067	addiscombe
-4.856503	addison
-5.503304	addison's
-6.327729	addisonian
-6.885612	addisons
-4.665954	addition
-4.591623	additional
-5.569664	additionally
-4.846816	additions
-7.167587	addix
-5.604786	addle
-5.418117	addled
-6.541995	addlepated
-6.504123	addlestone
-6.167841	addling
-4.096677	address
-5.525586	address'd
-6.407031	addresse
-3.912523	addressed
-6.437047	addressee
-6.68067	addressers
-4.509787	addresses
-6.28191	addressin
-4.113019	addressing
-5.725214	addrest
-4.268322	adds
-6.738858	addu
-5.725214	adduce
-5.327183	adduced
-5.834402	adduces
-5.892421	adducing
-5.776385	addy
-5.929425	ade
-6.738858	ade's
-6.504123	aded
-5.719221	adee
-5.811728	adeimantus
-5.93919	adel
-4.881713	adela
-5.653104	adela's
-5.776385	adelaida
-4.690871	adelaide
-5.549072	adelaide's
-6.629366	adelaine
-6.038639	adelais
-6.167841	adelantado
-7.211563	adelantado's
-6.504123	adelante
-5.750046	adelbert
-6.504123	adelchi
-4.746087	adele
-5.59128	adele's
-6.378957	adeler
-6.437047	adelgunda
-5.506939	adelheid
-6.583487	adelia
-5.756483	adelina
-6.629366	adelina's
-5.037119	adeline
-5.725214	adeline's
-6.327729	adeliza
-6.064211	adellan
-5.186239	adelle
-5.850203	adelle's
-6.541995	adelonga
-5.701725	adelphi
-6.504123	adelsberg
-6.98307	adelschein
-6.469291	ademar
-5.452142	aden
-5.929425	adene
-6.738858	adeney
-6.541995	adenoid
-5.866601	adenoids
-6.304215	adeo
-6.629366	adeodatus
-6.629366	adeos
-5.254066	adept
-6.469291	adeptness
-5.381066	adepts
-5.776385	adequacy
-4.699884	adequate
-4.917777	adequately
-6.469291	ader
-6.28191	aderke
-6.407031	adersbach
-6.629366	aderspach
-6.437047	ades
-6.583487	adesso
-6.28191	adest
-6.407031	adeste
-6.221141	adet
-6.68067	adet's
-6.437047	adexe
-6.437047	adham
-5.883643	adhelmar
-6.98307	adhem
-5.850203	adhemar
-6.051237	adherbal
-5.117049	adhere
-4.83578	adhered
-5.01305	adherence
-5.247992	adherent
-4.826539	adherents
-5.287984	adheres
-4.963328	adhering
-5.247992	adhesion
-5.910529	adhesions
-5.433253	adhesive
-5.969877	adhesiveness
-7.167587	adhkar
-6.327729	adhuc
-6.629366	adi
-6.583487	adia
-6.437047	adiaha
-6.202638	adiante
-6.260695	adiba
-6.629366	adie
-6.98307	adieno
-4.601494	adieu
-5.4997	adieus
-5.465207	adieux
-6.583487	adige
-6.629366	adikey
-6.68067	adimari
-6.167841	adin
-6.541995	adina
-6.68067	adinda
-6.437047	adine
-6.885612	adio
-5.506939	adios
-6.806065	adipocere
-5.834402	adipose
-6.469291	adiposity
-6.221141	adiron
-6.68067	adirondac
-5.892421	adirondack
-6.151435	adirondacks
-7.167587	adirondacs
-6.469291	adister
-6.077586	adit
-6.541995	aditi
-6.091385	aditya
-6.98307	adityan
-5.811728	adiva
-6.583487	adizzetta
-4.850021	adjacent
-6.28191	adjectival
-5.127588	adjective
-5.026123	adjectives
-6.68067	adjidaumo
-6.504123	adjieu
-5.826711	adjoin
-5.279253	adjoined
-4.632042	adjoining
-5.595736	adjoins
-6.68067	adjoint
-5.561309	adjourn
-4.959171	adjourned
-5.858325	adjourning
-5.59128	adjournment
-6.327729	adjournments
-6.051237	adjourns
-6.504123	adjoyning
-6.541995	adjudant
-5.901381	adjudge
-5.285785	adjudged
-6.327729	adjudges
-6.437047	adjudging
-6.327729	adjudicate
-6.064211	adjudicated
-6.68067	adjudicating
-5.929425	adjudication
-6.504123	adjudications
-5.220715	adjunct
-5.301418	adjuncts
-6.738858	adjunta
-5.492579	adjuration
-5.663448	adjurations
-5.93919	adjure
-5.354573	adjured
-6.167841	adjures
-5.614029	adjuring
-5.16248	adjust
-5.719221	adjustable
-4.462158	adjusted
-6.064211	adjuster
-6.68067	adjusters
-4.749902	adjusting
-4.890452	adjustment
-5.209529	adjustments
-5.553113	adjusts
-6.68067	adjutancy
-4.95608	adjutant
-6.304215	adjutant's
-5.804425	adjutants
-6.885612	adjutor
-6.629366	adjuvant
-6.806065	adkin
-5.892421	adkins
-6.504123	adlai
-5.349463	adler
-6.051237	adler's
-7.211563	adlergasse
-6.583487	adlon
-5.783227	admaston
-6.68067	admaston's
-6.064211	admeasurement
-7.167587	admer
-6.541995	admetos
-5.53717	admetus
-5.149466	administer
-4.518321	administered
-4.991358	administering
-5.569664	administers
-6.304215	administrador
-6.738858	administrate
-6.629366	administrating
-4.492498	administration
-6.504123	administration's
-5.415152	administrations
-4.981449	administrative
-6.407031	administratively
-5.181037	administrator
-6.629366	administrator's
-5.349463	administrators
-6.583487	administratrix
-6.629366	adminster
-5.969877	admir'd
-4.523978	admirable
-4.459205	admirably
-4.441895	admiral
-5.633127	admiral's
-6.583487	admirall
-5.226417	admirals
-5.427135	admiralty
-7.167587	admiralty's
-7.108924	admirari
-4.172635	admiration
-5.737453	admirations
-4.720875	admire
-4.271707	admired
-4.794244	admirer
-6.240468	admirer's
-4.660721	admirers
-4.964373	admires
-5.94918	admirin
-4.424945	admiring
-4.58721	admiringly
-6.504123	admissable
-6.629366	admissibility
-5.482111	admissible
-4.583711	admission
-5.238052	admissions
-4.469798	admit
-4.481344	admits
-5.143102	admittance
-3.841324	admitted
-5.357151	admittedly
-6.28191	admittin
-4.596082	admitting
-5.250007	admixture
-6.014488	admixtures
-5.436345	admonish
-6.407031	admonish'd
-4.691429	admonished
-6.437047	admonisher
-5.565466	admonishes
-5.191504	admonishing
-5.850203	admonishingly
-5.969877	admonishment
-6.469291	admonishments
-4.885187	admonition
-5.050948	admonitions
-5.521792	admonitory
-5.719221	adn't
-6.221141	adna
-5.525586	ado
-5.143102	adobe
-6.120373	adobes
-6.629366	adobie
-6.378957	adod
-6.885612	adoe
-6.504123	adoin
-6.304215	adoing
-5.750046	adolay
-5.349463	adolescence
-5.378343	adolescent
-5.980608	adolescents
-5.354573	adolf
-6.352588	adolf's
-6.541995	adolfo
-5.175897	adolph
-6.352588	adolph's
-4.978196	adolphe
-5.969877	adolphe's
-5.305991	adolphine
-5.959405	adolphine's
-5.254066	adolphus
-6.105637	adon
-5.679441	adonai
-5.569664	adonais
-6.407031	adonbec
-6.469291	adone
-5.969877	adoniah
-5.763016	adonijah
-5.725214	adoniram
-5.069211	adonis
-6.629366	adonis's
-6.469291	adonises
-6.378957	adoo
-7.211563	adoo's
-6.202638	adooley
-4.777591	adopt
-4.179966	adopted
-4.819735	adopting
-5.029757	adoption
-6.304215	adoptions
-6.038639	adoptive
-5.030975	adopts
-6.240468	ador
-5.959405	ador'd
-5.029757	adorable
-5.510605	adorably
-4.676073	adoration
-5.94918	adorations
-6.629366	adoratorios
-4.902082	adore
-4.587649	adored
-5.910529	adoree
-6.68067	adoree's
-5.349463	adorer
-5.367618	adorers
-5.109675	adores
-4.877409	adoring
-5.553113	adoringly
-6.378957	adorjan
-4.809359	adorn
-5.521792	adorn'd
-4.262046	adorned
-6.68067	adorneth
-4.911245	adorning
-6.167841	adornings
-5.033422	adornment
-5.16248	adornments
-6.541995	adorno
-5.109675	adorns
-6.541995	adou
-6.629366	adour
-6.541995	adova
-6.504123	adowa
-4.835002	adown
-5.883643	adrastus
-5.850203	adrea
-6.583487	adrea's
-6.167841	adread
-6.437047	adream
-5.743704	adrenal
-6.105637	adrenalin
-6.221141	adrenals
-6.407031	adresse
-7.108924	adrets
-6.352588	adria
-6.240468	adriaan
-4.575512	adrian
-5.359744	adrian's
-5.719221	adriana
-6.260695	adriance
-6.885612	adrianna
-6.120373	adriano
-5.834402	adrianople
-5.756483	adriatic
-7.108924	adriel
-5.332036	adrien
-6.240468	adrien's
-4.951993	adrienne
-5.725214	adrienne's
-7.211563	adrienssen
-4.784452	adrift
-6.407031	adrip
-5.147866	adroit
-7.108924	adroitest
-4.836559	adroitly
-5.211373	adroitness
-6.437047	adroop
-5.383807	ads
-6.352588	adsalis
-6.327729	adsum
-6.327729	adua
-6.28191	adulated
-5.115564	adulation
-6.184891	adulations
-6.583487	adulators
-6.026395	adulatory
-6.504123	adullam
-4.945932	adult
-6.98307	adult's
-5.919874	adulterate
-5.455371	adulterated
-6.541995	adulterates
-6.28191	adulterating
-5.59128	adulteration
-6.184891	adulterations
-5.901381	adulterer
-5.892421	adulterers
-6.091385	adulteress
-6.541995	adulteresses
-5.892421	adulteries
-5.69044	adulterous
-5.135276	adultery
-6.064211	adulthood
-6.738858	adultress
-5.13683	adults
-6.583487	adumbrate
-5.850203	adumbrated
-6.026395	adumbration
-6.077586	adumbrations
-6.541995	adurovich
-6.077586	adust
-6.541995	adv
-5.69044	advanc'd
-4.174499	advance
-3.821221	advanced
-4.85896	advancement
-6.064211	advancements
-4.382647	advances
-6.541995	advanceth
-6.352588	advancin
-4.148469	advancing
-4.42555	advantage
-5.969877	advantaged
-5.050948	advantageous
-5.26858	advantageously
-4.56039	advantages
-5.804425	advena
-4.869766	advent
-6.504123	advent'rous
-6.583487	adventist
-6.68067	adventists
-5.529413	adventitious
-4.244741	adventure
-6.202638	adventure's
-5.461904	adventured
-4.722072	adventurer
-6.038639	adventurer's
-4.694792	adventurers
-4.294375	adventures
-6.151435	adventuresome
-5.292416	adventuress
-5.826711	adventuresses
-5.341908	adventuring
-6.541995	adventurings
-4.802816	adventurous
-5.892421	adventurously
-6.014488	adventurousness
-6.407031	adventus
-6.629366	adver
-5.919874	adverb
-6.077586	adverbial
-5.679441	adverbs
-4.984727	adversaries
-4.802816	adversary
-6.077586	adversary's
-4.828065	adverse
-5.53717	adversely
-5.819155	adversities
-5.027331	adversity
-6.583487	adversity's
-6.469291	adversus
-5.684906	advert
-5.418117	adverted
-5.776385	adverting
-5.238052	advertise
-4.686986	advertised
-4.663853	advertisement
-4.693107	advertisements
-5.283597	advertiser
-6.98307	advertiser's
-5.565466	advertisers
-5.561309	advertises
-5.910529	advertisin
-4.678234	advertising
-6.629366	advertize
-6.304215	advertized
-6.469291	advertizing
-6.167841	adverts
-4.057872	advice
-5.322383	advices
-6.68067	advienne
-6.105637	advis'd
-6.260695	advisability
-5.202229	advisable
-7.211563	advisableness
-4.792127	advise
-6.352588	adviseable
-4.098954	advised
-5.191504	advisedly
-6.28191	advisement
-4.91032	adviser
-6.352588	adviser's
-5.026123	advisers
-4.960207	advises
-6.352588	adviseth
-6.120373	advisin
-4.749264	advising
-6.026395	advisor
-5.969877	advisors
-5.623473	advisory
-5.230261	advocacy
-4.60514	advocate
-6.240468	advocate's
-4.88869	advocated
-4.818985	advocates
-5.242001	advocating
-6.629366	advocatus
-6.541995	advowson
-6.469291	advowsons
-6.167841	advt
-6.120373	adwaita
-6.68067	adwantage
-6.352588	adwice
-6.504123	adwise
-5.99161	ady
-6.98307	adyar
-6.105637	adye
-6.469291	adytum
-6.738858	adz
-6.629366	adzatathat
-5.919874	adze
-6.167841	adzes
-6.738858	adzukizawa
-5.0626	ae
-6.120373	aeacus
-6.352588	aed
-6.738858	aedes
-6.352588	aedh
-6.202638	aedile
-6.202638	aediles
-6.806065	aedileship
-6.629366	aeduan
-7.167587	aeduans
-7.108924	aedui
-6.629366	aeetes
-6.504123	aefa
-6.629366	aeg
-6.151435	aegean
-6.738858	aeger
-6.202638	aegeus
-6.014488	aegina
-6.98307	aeginetans
-6.352588	aegir
-5.69044	aegis
-5.668714	aegisthus
-6.240468	aei
-6.304215	aelian
-6.120373	aelius
-6.437047	aelred
-6.541995	aelward
-5.725214	aemilia
-6.885612	aemilian
-6.738858	aemilianus
-6.026395	aemilius
-6.504123	aen
-5.141525	aeneas
-6.167841	aeneid
-6.98307	aeneis
-6.28191	aengus
-7.211563	aeni
-6.629366	aeniza
-6.184891	aennchen
-5.769649	aeolian
-6.014488	aeolus
-5.875039	aeon
-6.378957	aeonian
-5.381066	aeons
-6.541995	aepyornis
-6.68067	aepytus
-6.541995	aequo
-6.98307	aequor
-6.738858	aequus
-5.409282	aer
-5.929425	aera
-5.919874	aerated
-6.68067	aerating
-6.28191	aeration
-6.202638	aere
-4.808627	aerial
-5.959405	aerials
-6.051237	aerie
-6.077586	aeriform
-6.583487	aeris
-5.69044	aero
-5.648023	aerodrome
-6.184891	aerodromes
-6.352588	aerolite
-6.051237	aerolites
-6.885612	aeromotor
-5.553113	aeronaut
-6.68067	aeronaut's
-6.064211	aeronautic
-6.28191	aeronautical
-6.120373	aeronautics
-5.719221	aeronauts
-7.211563	aeropher
-6.541995	aeropile
-5.037119	aeroplane
-6.806065	aeroplane's
-5.10531	aeroplanes
-6.221141	aeroplaning
-6.583487	aerostat
-6.541995	aerostation
-6.184891	aerschot
-5.866601	aerssens
-7.167587	aert
-6.051237	aery
-6.202638	aes
-6.105637	aescendune
-5.858325	aeschines
-6.504123	aeschylean
-5.303699	aeschylus
-6.885612	aesclipus
-5.929425	aesculapius
-6.583487	aesir
-6.469291	aeson
-5.638036	aesop
-5.892421	aesop's
-6.437047	aesopus
-6.038639	aesthete
-6.135626	aesthetes
-4.723271	aesthetic
-5.737453	aesthetical
-5.506939	aesthetically
-6.202638	aestheticians
-5.737453	aestheticism
-5.448936	aesthetics
-6.352588	aesthetik
-6.077586	aet
-6.469291	aetas
-5.826711	aetat
-6.407031	aetatis
-6.437047	aeterna
-6.885612	aeternam
-7.108924	aeternitatis
-6.629366	aeternum
-5.53717	aether
-6.885612	aethera
-6.378957	aethereal
-6.583487	aethereum
-6.378957	aetherial
-6.504123	aethiop
-6.407031	aethra
-6.240468	aetius
-6.038639	aetna
-6.541995	aetolia
-6.806065	aetolian
-7.108924	aetolians
-6.98307	aev
-6.304215	aevius
-5.569664	af
-6.260695	afa
-7.167587	afanasiitch
-6.184891	afanassy
-6.184891	afanasy
-6.98307	afang
-4.370214	afar
-6.28191	afear'd
-5.292416	afeard
-5.478677	afeared
-7.211563	afee
-5.84223	afeerd
-6.202638	afeered
-6.240468	afer
-5.080002	aff
-5.0626	affability
-4.999225	affable
-4.932112	affably
-4.009178	affair
-6.469291	affair's
-5.638036	affaire
-5.834402	affaires
-4.088243	affairs
-6.738858	affec
-4.525499	affect
-4.733605	affectation
-5.234139	affectations
-4.062701	affected
-5.341908	affectedly
-6.202638	affectin
-4.388165	affecting
-6.077586	affectingly
-4.098811	affection
-5.633127	affection's
-6.064211	affectional
-4.482033	affectionate
-4.502861	affectionately
-5.604786	affectionateness
-6.407031	affectioned
-4.43042	affections
-6.064211	affective
-4.589411	affects
-6.151435	affer
-5.834402	affery
-7.211563	affey
-6.167841	affghan
-6.260695	affghanistan
-6.469291	affghans
-5.919874	affiance
-5.305991	affianced
-6.504123	affiant
-6.352588	affiche
-6.583487	affiches
-5.506939	affidavit
-5.415152	affidavits
-6.629366	affidavy
-6.051237	affiliate
-5.406376	affiliated
-6.504123	affiliates
-6.327729	affiliating
-5.609383	affiliation
-5.623473	affiliations
-5.096709	affinities
-4.954031	affinity
-4.873146	affirm
-6.304215	affirm'd
-5.089669	affirmation
-5.433253	affirmations
-5.093879	affirmative
-5.569664	affirmatively
-6.091385	affirmatives
-4.518696	affirmed
-6.327729	affirmeth
-4.977117	affirming
-4.863084	affirms
-5.525586	affix
-4.863914	affixed
-6.026395	affixes
-5.609383	affixing
-5.850203	afflatus
-5.274952	afflict
-4.652988	afflicted
-5.339419	afflicting
-4.741677	affliction
-5.980608	affliction's
-5.054797	afflictions
-5.875039	afflictive
-5.4997	afflicts
-5.114085	affluence
-5.334483	affluent
-5.850203	affluents
-6.541995	afflux
-6.806065	affly
-6.202638	affonso
-4.395728	afford
-4.110814	afforded
-6.437047	affordeth
-4.570835	affording
-4.383745	affords
-6.437047	afforestation
-6.541995	affraid
-6.629366	affranchisement
-5.427135	affray
-6.437047	affrayed
-5.819155	affrays
-6.541995	affreuse
-6.077586	affreux
-5.179317	affright
-4.951993	affrighted
-5.604786	affrightedly
-6.629366	affrightened
-5.919874	affrighting
-5.866601	affrights
-4.979278	affront
-5.160832	affronted
-5.658246	affronting
-5.362352	affronts
-6.68067	affusion
-6.583487	affy
-5.370274	afghan
-5.471889	afghanistan
-5.525586	afghans
-6.738858	aficionados
-5.066554	afield
-6.091385	afin
-6.202638	afiola
-6.151435	afion
-6.469291	afiong
-4.981449	afire
-5.004932	aflame
-6.184891	aflare
-6.541995	aflash
-4.548178	afloat
-6.583487	aflood
-6.504123	aflower
-6.437047	aflush
-6.352588	aflutter
-6.806065	afnan
-5.850203	afo
-6.541995	afoam
-6.738858	afon
-5.929425	afoor
-4.638913	afoot
-6.885612	afor
-4.164927	afore
-5.811728	aforehand
-5.59128	aforementioned
-6.378957	aforenamed
-4.668594	aforesaid
-6.167841	aforethought
-5.186239	aforetime
-6.014488	afoul
-6.221141	afra
-4.200923	afraid
-6.738858	afrancesado
-6.240468	afranius
-6.885612	afranj
-6.68067	afrasiab
-6.541995	afreet
-6.378957	afreets
-4.368087	afresh
-5.743704	afric
-5.866601	afric's
-4.753107	africa
-5.93919	africa's
-4.618619	african
-6.504123	african's
-6.98307	africana
-6.240468	africander
-6.541995	africanders
-6.221141	africaner
-5.196834	africans
-5.850203	africanus
-6.202638	africk
-6.504123	africo
-6.541995	africy
-6.135626	afridi
-6.407031	afridis
-6.378957	afrikander
-6.504123	afrikanders
-6.583487	afriky
-6.583487	afrique
-6.378957	afrit
-6.352588	afrite
-6.407031	afrites
-6.541995	afrits
-5.883643	afro
-7.211563	afroo
-6.583487	afrosinia
-7.211563	afruz
-4.453035	aft
-6.469291	aft'noon
-6.352588	afta
-5.674045	aftah
-5.929425	afteh
-5.901381	aften
-3.02274	after	-0.06219338
-6.260695	afterall
-6.98307	afterbirth
-6.68067	afterdeck
-5.4997	afterglow
-6.504123	afterguard
-7.167587	afterhold
-6.437047	afterlife
-5.421102	aftermath
-6.629366	aftermost
-4.416564	afternoon
-5.73129	afternoon's
-4.993591	afternoons
-6.98307	afterpart
-6.28191	afterpiece
-7.167587	afters
-6.260695	aftertaste
-5.430183	afterthought
-5.969877	afterthoughts
-6.407031	aftertime
-6.98307	aftertimes
-4.0207	afterward
-3.746516	afterwards
-5.99161	afterwhile
-6.541995	afterword
-6.541995	afthen
-4.943931	afther
-6.68067	afthernoon
-6.407031	aftherwards
-5.901381	afton
-6.541995	aftuh
-6.68067	afule
-6.541995	afwaid
-5.465207	afy
-6.541995	afy's
-6.541995	afzal
-6.583487	afzul
-5.565466	ag
-4.706769	ag'in
-5.653104	ag'inst
-5.489061	aga
-6.469291	aga's
-6.469291	agabus
-6.437047	agad
-6.541995	agade
-6.202638	agadez
-6.541995	agadir
-6.135626	agafia
-5.959405	agafya
-5.875039	agag
-3.121948	again	-0.03150997
-6.437047	again'
-5.518031	againe
-6.352588	agains
-3.272893	against	-0.04527413
-6.504123	agalma
-6.68067	agamalov
-4.991358	agamemnon
-5.783227	agamemnon's
-6.437047	agamemnons
-6.378957	agamenticus
-7.108924	agamogenesis
-6.738858	agan
-6.260695	agane
-6.629366	aganippe
-6.629366	agapae
-5.270694	agape
-6.806065	agapedome
-6.806065	agapida
-5.518031	agapit
-6.541995	agapit's
-6.304215	agapitus
-5.725214	agar
-5.919874	agaric
-6.541995	agarics
-6.583487	agaricus
-6.407031	agas
-7.108924	agasi
-6.437047	agasias
-5.25611	agassiz
-6.064211	agassiz's
-6.469291	agastya
-6.98307	agata
-5.258164	agate
-5.653104	agates
-4.601041	agatha
-5.35201	agatha's
-5.211373	agathe
-6.002898	agathe's
-5.317636	agathemer
-6.28191	agathemer's
-6.541995	agatho
-5.969877	agathocles
-5.668714	agathon
-6.738858	agathon's
-6.352588	agathos
-5.99161	agave
-6.352588	agaves
-6.407031	agawam
-6.806065	agaye
-6.184891	agayn
-6.120373	agaynst
-6.260695	agaze
-6.352588	agda
-6.68067	agde
-3.922291	age
-6.469291	age'
-5.834402	age's
-6.221141	ageaen
-6.038639	agean
-7.167587	ageaux
-4.292143	aged
-5.684906	ageing
-6.184891	agelaus
-5.725214	ageless
-5.582504	agellius
-6.407031	agellius's
-6.437047	agelong
-7.167587	agema
-4.95608	agen
-4.747355	agencies
-4.549384	agency
-6.504123	agency's
-5.892421	agenda
-6.583487	agendath
-6.120373	agenor
-6.68067	agenor's
-6.583487	agens
-6.504123	agenst
-4.271919	agent
-5.506939	agent's
-7.167587	agenting
-4.4066	agents
-6.120373	ager
-6.304215	ageratum
-6.437047	agere
-6.738858	agers
-4.39235	ages
-6.105637	agesilaus
-7.108924	ageus
-5.834402	agg
-6.469291	agg's
-6.504123	aggageers
-6.437047	aggam
-7.167587	aggeivitch
-6.629366	agger
-4.851633	aggie
-5.679441	aggie's
-6.260695	agglomerate
-6.240468	agglomerated
-5.725214	agglomeration
-6.135626	agglomerations
-6.352588	agglutinated
-6.407031	agglutinative
-6.583487	aggo
-6.806065	aggrandise
-6.378957	aggrandised
-5.834402	aggrandisement
-6.28191	aggrandize
-6.184891	aggrandized
-5.600237	aggrandizement
-6.304215	aggrandizing
-5.478677	aggravate
-4.849218	aggravated
-5.701725	aggravates
-6.105637	aggravatin
-5.179317	aggravating
-5.696046	aggravatingly
-5.312941	aggravation
-5.71331	aggravations
-5.247992	aggregate
-5.569664	aggregated
-5.804425	aggregates
-5.582504	aggregating
-5.230261	aggregation
-5.618725	aggregations
-5.057383	aggression
-5.430183	aggressions
-4.758286	aggressive
-4.983632	aggressively
-5.370274	aggressiveness
-5.684906	aggressor
-6.885612	aggressor's
-5.725214	aggressors
-6.378957	aggrieve
-5.04335	aggrieved
-5.719221	aggrievedly
-6.583487	aggrievement
-5.737453	aggy
-6.352588	agh
-6.120373	agha
-6.98307	agha's
-6.304215	aghadez
-6.885612	aghadoe
-6.885612	agharti
-4.546575	aghast
-7.211563	aghouat
-6.806065	aghyohillbeg
-6.504123	agias
-6.68067	agib
-6.885612	agie
-5.030975	agile
-6.002898	agilely
-4.979278	agility
-4.335165	agin
-5.875039	agincourt
-5.503304	aging
-5.383807	aginst
-6.504123	agint
-6.504123	agio
-5.719221	agis
-6.437047	agit
-7.108924	agitat
-5.322383	agitate
-4.466793	agitated
-5.317636	agitatedly
-5.557192	agitates
-5.115564	agitating
-4.452391	agitation
-5.205863	agitations
-6.327729	agitato
-5.322383	agitator
-6.68067	agitator's
-5.204042	agitators
-6.135626	agitha
-6.541995	agla
-5.725214	aglae
-5.826711	aglaia
-6.260695	aglare
-6.541995	aglauron
-5.392133	aglaya
-6.260695	aglaya's
-5.638036	agleam
-6.629366	aglee
-6.437047	agley
-6.469291	agli
-6.504123	aglint
-5.737453	aglionby
-6.304215	aglionby's
-6.260695	aglitter
-6.240468	aglootook
-6.806065	agloval
-5.01305	aglow
-7.108924	agnace
-6.352588	agnar
-6.629366	agnatic
-5.94918	agne
-6.504123	agne's
-6.885612	agneau
-5.969877	agnella
-4.337382	agnes
-5.648023	agnes's
-6.167841	agnese
-6.352588	agneta
-6.352588	agnete
-5.458625	agnew
-6.167841	agnew's
-6.98307	agnews
-5.668714	agni
-5.94918	agnolo
-6.629366	agnomen
-5.312941	agnostic
-5.378343	agnosticism
-5.679441	agnostics
-5.892421	agnus
-5.100988	ago
-5.418117	agog
-5.529413	agoin
-5.541101	agoing
-6.026395	agon
-5.73129	agone
-6.407031	agong
-4.914032	agonies
-6.352588	agonise
-5.222607	agonised
-5.341908	agonising
-6.105637	agonisingly
-6.806065	agonistes
-6.014488	agonize
-4.964373	agonized
-6.167841	agonizedly
-6.407031	agonizes
-5.086885	agonizing
-5.756483	agonizingly
-6.806065	agonjo
-4.41479	agony
-6.091385	agony's
-6.437047	agoo
-6.091385	agora
-6.378957	agoraphobia
-6.202638	agoratus
-6.077586	agostina
-5.406376	agostino
-6.304215	agouti
-6.28191	agoutis
-6.541995	agr
-5.468535	agra
-6.98307	agra's
-5.93919	agrafena
-6.504123	agraffe
-6.240468	agrah
-6.469291	agram
-5.866601	agramant
-6.583487	agramante
-5.919874	agrando
-6.184891	agrando's
-6.221141	agraphena
-5.533274	agrarian
-6.407031	agrarianism
-6.304215	agrarians
-6.120373	agravaine
-7.211563	agrawaine
-5.99161	agreable
-6.885612	agreda
-4.401416	agree
-6.026395	agreeability
-4.416861	agreeable
-5.701725	agreeableness
-6.738858	agreeables
-4.621936	agreeably
-3.752707	agreed
-6.167841	agreein
-4.66333	agreeing
-4.603769	agreement
-5.174197	agreements
-4.604226	agrees
-6.437047	agreeth
-6.504123	agremens
-6.68067	agrements
-6.378957	agri
-6.327729	agrican
-5.124551	agricola
-5.883643	agricola's
-6.28191	agricole
-4.641393	agricultural
-6.407031	agriculturalist
-6.240468	agriculturalists
-6.28191	agriculturally
-4.792127	agriculture
-5.430183	agriculturist
-5.362352	agriculturists
-6.28191	agrigentum
-6.304215	agrimony
-6.352588	agrin
-5.126067	agrippa
-5.811728	agrippa's
-5.290195	agrippina
-5.892421	agrippina's
-7.211563	agrippino
-6.504123	agro
-6.469291	agron
-6.504123	agronian
-6.885612	agronians
-5.209529	aground
-7.167587	agryopoulo
-6.629366	agsk
-5.790179	agua
-6.504123	aguada
-6.327729	aguado
-6.469291	aguadores
-5.980608	aguardiente
-6.184891	aguas
-5.216954	ague
-6.583487	aguecheek
-6.806065	agueda
-5.883643	agues
-6.378957	aguila
-6.135626	aguilar
-6.806065	aguilar's
-6.327729	aguilino
-5.719221	aguinaldo
-6.469291	aguinaldo's
-6.28191	aguirre
-6.135626	aguish
-6.68067	agulhas
-6.806065	agunt
-6.28191	agur
-6.240468	agus
-6.352588	agustin
-6.738858	agvars
-6.437047	agwine
-6.738858	agworth
-3.732977	ah
-6.151435	ah'
-5.826711	ah'd
-5.73129	ah'll
-5.707479	ah'm
-5.858325	ah's
-6.120373	ah've
-5.066554	aha
-5.098131	ahab
-5.804425	ahab's
-6.202638	ahadarra
-6.469291	ahafid
-6.98307	ahaggar
-6.135626	ahagur
-6.68067	ahahnheeattoepahk
-6.469291	ahaid
-6.378957	ahalala
-6.378957	ahamadou
-6.98307	ahaseragh
-5.455371	ahasuerus
-6.68067	ahau
-5.834402	ahaz
-6.352588	ahaziah
-6.583487	ahe
-3.937171	ahead
-7.167587	aheads
-6.135626	ahearn
-6.038639	aheer
-4.940946	ahem
-6.260695	ahenobarbus
-6.885612	aherlow
-6.407031	ahern
-6.738858	aherne
-6.437047	ahh
-6.806065	ahhh
-5.980608	ahi
-6.541995	ahii
-6.629366	ahijah
-6.629366	ahikam
-6.260695	ahimaaz
-6.221141	ahimelek
-6.469291	ahimsa
-6.352588	ahin
-5.99161	ahind
-6.68067	ahineev
-5.489061	ahint
-6.98307	ahir
-6.240468	ahithophel
-7.108924	ahkond
-6.885612	ahkoond
-5.94918	ahl
-6.469291	ahlbeck
-6.151435	ahm
-6.135626	ahma
-5.320004	ahmad
-6.167841	ahmad's
-6.806065	ahmadeen
-7.211563	ahmak
-7.108924	ahmar
-5.130647	ahmed
-6.240468	ahmed's
-6.583487	ahmedabad
-6.738858	ahmednuggur
-6.407031	ahmeek
-5.790179	ahmet
-6.28191	ahmik
-6.240468	ahn
-6.98307	ahnahaways
-6.135626	ahneota
-5.969877	aho
-6.541995	aholah
-6.221141	ahold
-6.98307	aholiab
-6.260695	aholibah
-6.541995	ahoo
-6.504123	ahora
-6.240468	ahorse
-5.436345	ahoy
-6.167841	ahpilus
-6.327729	ahr
-6.504123	ahrab
-6.885612	ahrendt
-6.541995	ahrens
-5.743704	ahriman
-6.437047	ahrimanes
-6.051237	ahs
-6.504123	ahsonnutli
-5.826711	aht
-6.077586	ahti
-6.629366	ahto
-6.583487	ahu
-6.738858	ahua
-6.437047	ahum
-6.437047	ahungered
-5.850203	ahura
-6.469291	ahure
-7.167587	ahwaynain
-6.629366	ahwaz
-6.352588	ahzab
-7.211563	ahzim
-5.065232	ai
-6.806065	ai'
-6.583487	aia
-6.629366	aiah
-6.240468	aiala
-5.614029	aias
-5.959405	aiblins
-6.260695	aich
-6.885612	aicha
-4.163104	aid
-5.561309	aida
-6.504123	aida's
-6.202638	aidan
-4.92728	aide
-6.629366	aide's
-4.214299	aided	-0.2055032
-6.469291	aidenn
-6.135626	aider
-6.184891	aiders
-5.205863	aides
-6.629366	aidge
-6.352588	aidin
-4.836559	aiding
-4.742932	aids
-5.919874	aie
-6.352588	aietes
-6.407031	aifter
-6.014488	aig
-6.469291	aiggs
-6.002898	aigle
-6.202638	aigleta
-6.885612	aiglon
-6.98307	aignan
-6.806065	aignay
-6.504123	aigret
-5.819155	aigrette
-5.94918	aigrettes
-5.875039	aigs
-5.980608	aigues
-6.202638	aiguille
-6.221141	aiguilles
-6.304215	aiguillettes
-6.260695	aiguillon
-6.541995	aik
-6.629366	aikanaka
-5.433253	aiken
-6.260695	aiken's
-6.806065	aikenhead
-7.167587	aikenheads
-6.68067	aikens
-6.064211	aikenside
-6.240468	aikin
-6.68067	aikwood
-5.394945	ail
-6.28191	ailanthus
-6.541995	ailantus
-6.469291	aile
-6.68067	ailean
-5.73129	ailed
-6.504123	ailee
-4.860605	aileen
-5.71331	aileen's
-6.583487	aileron
-6.504123	ailerons
-6.28191	ailes
-6.738858	ailesbury
-7.108924	ailest
-6.541995	ailesworth
-6.806065	aileth
-5.179317	ailie
-5.969877	ailie's
-6.738858	ailikoleeps
-6.014488	ailill
-6.541995	ailill's
-5.819155	ailin
-5.13683	ailing
-6.378957	ailings
-6.583487	ailleurs
-7.108924	ailm
-5.191504	ailment
-5.0855	ailments
-5.506939	ails
-5.489061	ailsa
-6.28191	ailsa's
-6.260695	ailsie
-5.684906	ailwin
-6.469291	ailwin's
-4.359425	aim
-5.929425	aim'd
-5.883643	aimable
-6.98307	aimand
-6.68067	aimard
-6.885612	aimard's
-5.648023	aime
-4.378282	aimed
-5.315282	aimee
-6.202638	aimee's
-6.105637	aimer
-6.378957	aimeri
-6.184891	aimery
-6.026395	aimes
-6.583487	aimette
-6.541995	aimez
-5.71331	aimin
-4.636446	aiming
-4.918717	aimless
-4.742304	aimlessly
-5.783227	aimlessness
-6.885612	aimons
-4.540617	aims
-6.629366	aimwell
-4.989137	ain
-6.026395	ain'd
-3.805332	ain't
-5.892421	aina
-5.919874	aince
-6.541995	aind't
-6.437047	aindt
-6.105637	aine
-6.327729	ainger
-6.806065	ainley
-5.93919	aino
-6.378957	ainos
-5.633127	ainsi
-6.014488	ainslee
-6.28191	ainslee's
-5.663448	ainsleigh
-5.919874	ainsley
-6.98307	ainsley's
-5.969877	ainslie
-6.407031	ainslie's
-5.372947	ainsworth
-6.026395	ainsworth's
-4.88606	aint
-7.211563	ainta
-6.135626	aintree
-6.629366	ainu
-6.504123	ainy
-3.719133	air
-5.99161	air's
-6.221141	airboat
-6.378957	airboats
-6.077586	airborne
-6.091385	aircar
-5.866601	aircars
-5.172504	aircraft
-6.120373	aird
-6.437047	aird's
-6.378957	airdrome
-6.98307	airds
-5.850203	aire
-5.25611	aired
-5.696046	airedale
-6.014488	airedales
-6.629366	aires
-6.221141	airey
-6.304215	aireyholme
-6.240468	airfield
-6.738858	airhole
-6.167841	airier
-6.184891	airiest
-6.541995	airikat
-4.722671	airily
-6.304215	airin
-5.69044	airiness
-5.099557	airing
-6.051237	airings
-6.806065	airjeep
-6.504123	airjeeps
-5.471889	airless
-6.541995	airlessness
-6.202638	airlie
-7.108924	airlie's
-6.469291	airlift
-6.327729	airline
-6.629366	airliner
-6.504123	airlines
-5.73129	airlock
-6.28191	airlocks
-5.628273	airly
-6.469291	airm
-6.378957	airmail
-5.569664	airman
-6.378957	airman's
-5.458625	airmen
-6.304215	airms
-6.202638	airn
-6.378957	airned
-6.352588	airnest
-6.437047	airole
-6.352588	airolo
-5.332036	airplane
-7.108924	airplane's
-5.40349	airplanes
-5.618725	airport
-6.378957	airports
-4.425248	airs
-6.738858	airshaft
-5.114085	airship
-6.885612	airship's
-5.312941	airships
-6.806065	airslie
-6.091385	airt
-5.883643	airth
-6.738858	airth's
-6.378957	airthly
-5.94918	airtight
-6.738858	airton
-6.738858	airts
-6.583487	airway
-6.469291	airways
-4.746087	airy
-6.806065	airy's
-6.378957	airyoplane
-6.184891	ais
-6.327729	aischa
-5.980608	aise
-6.221141	aisier
-6.327729	aisily
-6.885612	aislabie
-5.024918	aisle
-6.378957	aisled
-4.977117	aisles
-6.352588	aisne
-6.806065	aisou
-5.969877	aissa
-6.885612	aist
-5.381066	aisy
-5.600237	ait
-6.304215	aitch
-6.240468	aitches
-7.108924	aitcheson
-6.167841	aith
-5.719221	aither
-6.68067	aithra
-6.352588	aitin
-5.929425	aitken
-6.583487	aitken's
-6.184891	aitkin
-6.437047	aits
-6.541995	aivan
-6.68067	aivron
-6.738858	aiwa
-7.167587	aiwah
-5.461904	aix
-6.738858	aiyoub
-6.738858	aja
-6.077586	ajaccio
-6.583487	ajalon
-5.139955	ajar
-6.352588	ajas
-6.583487	ajatasatru
-6.437047	ajau
-5.070545	ajax
-6.504123	ajax's
-6.68067	ajaxes
-6.260695	ajee
-6.407031	ajmir
-5.883643	ajo
-5.750046	ajor
-6.437047	ajoupa
-7.167587	aju
-6.469291	ajumba
-6.352588	ajut
-5.565466	ak
-6.407031	aka
-6.583487	akaba
-5.959405	akaki
-6.504123	akaki's
-7.167587	akakievitch
-6.583487	akali
-6.504123	akasa
-6.583487	akasaka
-6.327729	akasava
-6.28191	akasha
-7.108924	akashic
-6.68067	akatan
-6.240468	akbah
-6.504123	akbal
-5.204042	akbar
-5.604786	akbar's
-6.407031	akber
-5.959405	ake
-6.629366	aked
-5.719221	akela
-6.378957	akeley
-6.885612	akemit
-5.929425	akenside
-6.327729	akenside's
-6.352588	akerman
-5.875039	akers
-6.738858	akerson
-6.260695	akh
-6.151435	akhab
-6.260695	akhbar
-5.797244	akhnaton
-6.091385	akhnaton's
-6.806065	akhoond
-6.352588	akhunaten
-6.327729	aki
-6.738858	akiba
-6.504123	akil
-5.769649	akim
-6.541995	akim's
-5.919874	akimbo
-6.806065	akimiski
-6.541995	akimitch
-4.650949	akin
-6.541995	aking
-6.304215	akinosuke
-6.437047	akins
-5.959405	akira
-7.211563	akitcita
-6.221141	akiyama
-5.582504	akka
-6.738858	akkar
-5.929425	akkomi
-6.738858	akkomi's
-7.211563	akley
-6.28191	aklis
-7.211563	akman
-6.202638	ako
-7.211563	akond
-6.583487	akong
-6.077586	akoon
-6.327729	akor
-5.959405	akos
-5.750046	akosh
-6.135626	akoulina
-6.327729	akoulka
-6.541995	akpan
-6.738858	akpap
-6.378957	akra
-6.504123	akram
-5.910529	akron
-6.629366	aksakoff
-6.469291	akshay
-6.064211	aksinya
-6.091385	akspine
-6.541995	aksyutka
-6.091385	aku
-6.327729	akulina
-6.504123	akulka
-6.352588	akusch
-5.696046	akut
-6.504123	akut's
-4.389277	al
-5.750046	al'ays
-5.929425	al's
-6.437047	al'ys
-5.604786	ala
-5.147866	alabama
-6.629366	alabama's
-6.738858	alabamas
-6.437047	alabamian
-6.469291	alabamians
-6.583487	alabarch
-7.211563	alabarch's
-5.174197	alabaster
-6.738858	alachua
-6.885612	alachuas
-6.378957	alaciel
-5.209529	alack
-6.583487	alackaday
-7.108924	alacoque
-4.912172	alacrity
-6.806065	alaculof
-6.98307	alaculofs
-5.124551	aladdin
-5.439458	aladdin's
-7.108924	aladel
-6.504123	aladin
-6.541995	aladine
-6.504123	alaeddin
-6.68067	alagon
-6.629366	alahcasla
-5.375637	alain
-6.202638	alain's
-6.202638	alais
-6.221141	alaister
-6.504123	alaka
-7.211563	alakayeff
-6.469291	alakesa
-6.68067	alala
-7.108924	alam
-6.738858	alaman
-6.738858	alamance
-5.883643	alameda
-6.806065	alamito
-6.064211	alamo
-6.352588	alamode
-6.469291	alamos
-6.629366	alamosa
-4.409216	alan
-5.21883	alan's
-7.167587	alanby
-6.221141	aland
-5.763016	alane
-5.783227	alang
-6.738858	alangalang
-7.108924	alani
-5.529413	alanna
-6.469291	alanna's
-6.167841	alannah
-6.327729	alans
-6.437047	alanson
-6.437047	alarcon
-6.583487	alarcos
-6.629366	alardyce
-5.177604	alaric
-5.883643	alaric's
-4.345109	alarm
-5.776385	alarm'd
-4.277479	alarmed
-6.221141	alarmedly
-6.583487	alarmin
-4.836559	alarming
-5.091068	alarmingly
-5.850203	alarmist
-5.901381	alarmists
-4.831135	alarms
-5.618725	alarum
-5.737453	alarums
-4.094977	alas	-0.1978029
-6.202638	alasco
-5.969877	alasdair
-6.738858	alasia
-5.0855	alaska
-6.105637	alaska's
-5.514302	alaskan
-6.167841	alaskans
-6.026395	alaskon
-6.806065	alasky
-6.629366	alassio
-6.202638	alastair
-5.99161	alastor
-6.885612	alata
-7.167587	alatamaha
-5.696046	alathea
-6.407031	alathea's
-6.629366	alatta
-6.184891	alava
-6.437047	alayn
-5.458625	alb
-6.407031	alb's
-5.292416	alba
-6.135626	alba's
-6.885612	albacina
-6.378957	albacore
-5.138389	alban
-5.959405	alban's
-6.583487	albanese
-6.68067	albanesi
-5.94918	albani
-5.492579	albania
-6.304215	albania's
-5.266477	albanian
-5.549072	albanians
-6.541995	albanius
-5.653104	albano
-6.221141	albano's
-6.738858	albans
-5.009552	albany
-6.407031	albany's
-6.806065	albaro
-6.68067	albatros
-5.458625	albatross
-5.883643	albatrosses
-6.806065	albay
-6.437047	albe't
-5.883643	albee
-4.243943	albeit
-5.461904	albemarle
-6.352588	albemarle's
-6.806065	alberan
-7.167587	alberca
-6.184891	alberdin
-6.014488	albergo
-5.565466	alberic
-6.28191	alberic's
-5.663448	alberich
-6.541995	alberich's
-6.629366	alberick
-6.541995	albermarle
-6.469291	alberni
-5.834402	alberoni
-6.407031	alberson
-4.364654	albert
-5.200423	albert's
-5.614029	alberta
-6.077586	alberti
-6.437047	albertina
-5.719221	albertine
-6.437047	albertine's
-5.701725	alberto
-6.469291	alberts
-6.437047	albertson
-5.684906	albertus
-6.051237	albeury
-6.28191	albi
-6.469291	albicore
-6.135626	albigenses
-6.806065	albigensian
-7.108924	albigeois
-6.077586	albin
-6.038639	albina
-6.469291	albini
-6.002898	albinia
-6.437047	albinik
-5.595736	albino
-6.885612	albino's
-6.026395	albinos
-5.783227	albinus
-5.301418	albion
-5.93919	albion's
-6.407031	albiona
-6.541995	albitte
-6.352588	albius
-6.68067	albizzi
-6.68067	albo
-6.504123	albogasio
-5.883643	alboin
-6.077586	alboni
-6.885612	alboraya
-6.077586	albornoz
-6.541995	alboufaki
-6.541995	albracca
-5.430183	albrecht
-6.469291	albrecht's
-6.629366	albret
-7.167587	albret's
-6.202638	albright
-6.378957	albritton
-6.437047	albs
-6.202638	albuera
-6.806065	albula
-5.12304	album
-6.583487	albumblatt
-5.701725	albumen
-6.583487	albumin
-6.68067	albuminoids
-6.202638	albuminous
-5.40349	albums
-5.875039	albuquerque
-6.240468	albury
-7.108924	albury's
-7.108924	alburys
-6.352588	albus
-6.541995	alby
-6.504123	albyn
-6.885612	alc
-6.437047	alca
-6.469291	alcade
-6.806065	alcador
-5.834402	alcaeus
-6.504123	alcahazar
-6.407031	alcaic
-6.28191	alcaics
-6.504123	alcaid
-6.885612	alcaide
-6.077586	alcala
-5.412207	alcalde
-6.68067	alcalde's
-5.901381	alcaldes
-6.806065	alcan
-6.327729	alcander
-6.240468	alcando
-6.407031	alcanor
-6.221141	alcantara
-6.98307	alcantra
-6.806065	alcar
-6.806065	alcatras
-5.386565	alcatraz
-6.304215	alcayde
-7.167587	alcayde's
-5.875039	alcazar
-6.091385	alce
-6.68067	alce's
-6.629366	alcedo
-6.407031	alcee
-7.108924	alcega
-5.811728	alceste
-6.583487	alcester
-5.485572	alcestis
-6.304215	alchemic
-6.064211	alchemical
-5.658246	alchemist
-6.541995	alchemist's
-5.756483	alchemists
-5.254066	alchemy
-6.407031	alchymist
-6.437047	alchymists
-6.327729	alchymy
-6.135626	alcibiade
-5.099557	alcibiades
-6.437047	alcidas
-5.696046	alcide
-5.797244	alcides
-6.051237	alcimedon
-6.327729	alcimus
-5.980608	alcina
-6.221141	alcina's
-5.595736	alcinous
-6.407031	alciphron
-6.352588	alcmaeon
-6.738858	alcmaeonid
-7.108924	alcmaeonidae
-6.504123	alcman
-6.378957	alcmena
-6.407031	alcmena's
-5.980608	alcmene
-6.68067	alcocer
-5.969877	alcock
-4.841263	alcohol
-5.126067	alcoholic
-6.002898	alcoholics
-5.73129	alcoholism
-6.541995	alcoholized
-6.629366	alcohols
-6.437047	alcolomb
-6.98307	alcomotive
-6.167841	alcon
-6.629366	alcoran
-5.875039	alcorn
-6.504123	alcorn's
-5.648023	alcott
-6.304215	alcott's
-7.108924	alcotts
-5.160832	alcove
-6.327729	alcoved
-5.458625	alcoves
-6.28191	alcudia
-5.776385	alcuin
-6.541995	alcuin's
-6.629366	alcun
-6.352588	alcuna
-6.738858	alcyon
-6.077586	alcyone
-6.240468	ald
-6.437047	alda
-6.541995	aldama
-7.167587	aldarondo
-6.885612	aldavini
-6.327729	alday
-6.002898	aldborough
-6.407031	aldbrickham
-6.151435	aldea
-5.674045	aldebaran
-6.583487	aldebert
-6.583487	aldeburgh
-6.437047	aldegonde
-6.806065	aldemegry
-5.056088	alden
-5.819155	alden's
-6.806065	aldens
-5.139955	alder
-5.929425	alderbury
-6.583487	alderbury's
-6.98307	alderby
-6.151435	alderdene
-6.378957	alderete
-6.98307	aldergrass
-6.806065	alderley
-4.938967	alderman
-6.437047	alderman's
-6.68067	aldermanbury
-5.919874	aldermanic
-5.283597	aldermen
-5.725214	alderney
-6.504123	alderneys
-5.424108	alders
-6.184891	aldersbury
-6.038639	aldersgate
-5.84223	aldershot
-6.738858	aldersley
-5.648023	alderson
-6.352588	alderson's
-6.407031	alderton
-6.806065	alderworth
-6.98307	aldesey
-5.959405	aldgate
-6.469291	aldhelm
-6.407031	aldie
-6.541995	aldigier
-6.135626	aldine
-6.68067	aldington
-6.738858	aldini
-6.026395	aldis
-6.064211	aldith
-5.618725	aldo
-6.304215	aldo's
-6.240468	aldobrand
-6.327729	aldobrandini
-6.378957	aldona
-5.959405	aldonza
-5.103865	aldous
-6.304215	aldous's
-6.469291	aldovrand
-5.392133	aldred
-6.105637	aldred's
-5.433253	aldrich
-6.327729	aldrich's
-6.378957	aldridge
-7.108924	aldrovand
-6.504123	aldrovandi
-6.629366	aldrovandus
-5.94918	aldus
-6.629366	aldwark
-6.202638	aldworth
-6.68067	aldwych
-4.723271	ale
-6.469291	alea
-6.806065	aleander
-6.541995	aleardi
-6.806065	aleatory
-4.66333	alec
-5.578181	alec's
-4.916837	aleck
-5.883643	aleck's
-7.108924	alecks
-5.850203	alecto
-7.211563	alectrion
-6.026395	alee
-6.629366	aleefa
-6.327729	aleel
-6.327729	aleema
-6.469291	alef
-6.541995	alegre
-6.469291	alegria
-5.582504	alehouse
-6.151435	alehouses
-6.738858	aleikum
-6.051237	alejandro
-6.091385	aleko
-6.583487	aleksander
-6.806065	aleksandra
-6.885612	aleksandrovich
-6.469291	aleksei
-6.583487	alem
-6.629366	aleman
-6.583487	alemanni
-6.806065	alemannic
-5.834402	alembic
-6.120373	alembics
-6.738858	alemtejo
-5.674045	alencon
-5.514302	alene
-6.151435	alene's
-6.28191	alenoushka
-6.28191	aleph
-5.725214	aleppo
-6.051237	alere
-4.40285	alert
-6.504123	alerta
-6.407031	alerte
-5.959405	alerted
-6.583487	alerting
-5.189742	alertly
-4.969637	alertness
-5.707479	ales
-6.98307	aleshine
-7.211563	aleshine's
-6.378957	alesia
-6.221141	alessandra
-6.151435	alessandria
-4.948952	alessandro
-5.707479	alessandro's
-6.504123	alessio
-5.929425	aleta
-6.504123	aleta's
-6.120373	alete
-6.504123	aletes
-5.71331	alethea
-6.504123	alethea's
-6.28191	aletheia
-6.885612	aletsch
-6.184891	aletta
-5.866601	alette
-6.352588	aleut
-6.304215	aleutian
-6.629366	aleutians
-6.504123	aleuts
-6.98307	alev
-6.437047	alewife
-6.437047	alewives
-4.572955	alex
-5.919874	alex's
-6.184891	alexa
-6.026395	alexai
-4.261631	alexander
-5.127588	alexander's
-6.026395	alexanders
-6.105637	alexandr
-7.167587	alexandr'itch
-5.099557	alexandra
-6.014488	alexandra's
-5.222607	alexandre
-6.469291	alexandre's
-6.202638	alexandretta
-5.066554	alexandria
-6.629366	alexandria's
-5.648023	alexandrian
-6.014488	alexandrians
-5.969877	alexandrina
-5.565466	alexandrine
-5.969877	alexandrines
-6.68067	alexandrinus
-6.583487	alexandritch
-6.304215	alexandro
-6.68067	alexandrovich
-6.120373	alexandrovitch
-6.28191	alexandrovna
-6.885612	alexandrovna's
-6.68067	alexandrovsk
-6.407031	alexandru
-6.151435	alexandrus
-5.980608	alexas
-5.73129	alexei
-6.407031	alexeieff
-5.332036	alexey
-6.98307	alexeyevitch
-6.98307	alexeyevna
-6.806065	alexeyitch
-5.737453	alexia
-7.108924	alexievich
-7.108924	alexievitch
-6.98307	alexievna
-5.238052	alexina
-6.105637	alexina's
-4.882579	alexis
-6.202638	alexis's
-6.202638	alexius
-6.352588	alexix
-6.583487	alexo
-5.59128	alexyei
-6.98307	alexyevna
-4.804986	alf
-5.99161	alf's
-6.407031	alfa
-5.285785	alfalfa
-6.738858	alfaqui
-5.959405	alfaretta
-6.407031	alfear
-6.352588	alfego
-5.94918	alferez
-7.211563	alferez's
-6.352588	alfgar
-7.167587	alfgiva
-5.623473	alfie
-6.378957	alfie's
-5.154301	alfieri
-5.850203	alfieri's
-6.437047	alfin
-6.541995	alfington
-6.135626	alfio
-6.541995	alfon
-6.260695	alfonse
-6.026395	alfonsine
-5.138389	alfonso
-5.919874	alfonso's
-6.167841	alfonzo
-5.750046	alford
-6.327729	alford's
-6.407031	alforjas
-6.541995	alfoxden
-4.271919	alfred
-5.086885	alfred's
-7.167587	alfredi
-6.240468	alfredia
-5.980608	alfredo
-6.541995	alfredston
-6.437047	alfresco
-5.858325	alftruda
-6.629366	alftruda's
-6.260695	alftrude
-6.135626	alfurd
-6.68067	alfuros
-5.492579	alfy
-6.184891	alga
-5.600237	algae
-6.038639	algar
-5.811728	algarcife
-6.806065	algarcife's
-7.108924	algarez
-6.378957	algarotti
-6.806065	algarroba
-5.193273	algebra
-5.743704	algebraic
-6.026395	algebraical
-6.407031	algebraically
-6.002898	algeciras
-5.769649	alger
-6.378957	alger's
-5.521792	algeria
-5.573902	algerian
-6.28191	algerians
-5.819155	algerine
-6.151435	algerines
-5.092472	algernon
-6.151435	algernon's
-6.68067	algesiras
-6.541995	algetin
-6.629366	algic
-6.629366	algidus
-6.026395	algie
-6.738858	algier
-5.266477	algiers
-5.769649	algitha
-6.437047	algitha's
-6.28191	algive
-6.352588	algoa
-6.151435	algol
-6.378957	algoma
-6.738858	algonkian
-6.352588	algonkin
-6.583487	algonkins
-5.458625	algonquin
-6.541995	algonquin's
-5.819155	algonquins
-6.629366	algorithm
-6.738858	alguacil
-6.583487	alguaciles
-6.240468	alguazil
-6.151435	alguazils
-5.336944	algy
-6.038639	algy's
-6.68067	alhama
-5.743704	alhambra
-6.407031	alhambra's
-6.541995	alhamdulillah
-6.221141	alhamid
-4.559153	ali
-5.415152	ali's
-5.797244	alia
-6.407031	aliaga
-6.260695	aliande
-5.743704	aliandra
-6.437047	aliandra's
-5.701725	alianora
-6.68067	alianora's
-4.579376	alias
-5.756483	aliases
-6.68067	alibaba
-6.151435	alibech
-5.303699	alibi
-5.819155	alibis
-6.541995	alic
-6.240468	alicant
-6.221141	alicante
-4.154426	alice
-5.0396	alice's
-4.971761	alicia
-5.790179	alicia's
-4.983632	alick
-5.84223	alick's
-6.135626	alicran
-5.133727	alida
-5.959405	alida's
-6.806065	alide
-6.68067	alidoro
-6.378957	alie
-4.604226	alien
-6.469291	alien's
-6.221141	aliena
-5.582504	alienate
-5.069211	alienated
-6.077586	alienates
-5.756483	alienating
-5.224508	alienation
-6.240468	alienations
-6.469291	alieni
-6.077586	alienist
-6.051237	alienists
-5.040847	aliens
-6.378957	alienum
-6.738858	alif
-6.407031	alife
-6.469291	aligarh
-6.407031	aligern
-6.327729	alighieri
-4.688647	alight
-4.436895	alighted
-6.541995	alighteth
-4.863914	alighting
-5.482111	alights
-6.806065	alighur
-6.167841	align
-5.468535	aligned
-6.407031	aligning
-5.618725	alignment
-6.541995	alignments
-6.135626	alii
-6.064211	aliis
-3.825837	alike
-6.504123	alim
-6.151435	alima
-6.469291	alimaymon
-5.359744	aliment
-5.776385	alimentary
-6.240468	alimentation
-6.469291	alimentiveness
-5.883643	aliments
-5.725214	alimony
-5.94918	alina
-4.929206	aline
-5.763016	aline's
-6.437047	aling
-5.875039	alington
-6.583487	alington's
-6.105637	alio
-6.738858	aliokhin
-6.583487	alios
-6.304215	aliosha
-6.68067	aliprandi
-6.469291	alipur
-6.327729	aliqua
-6.352588	aliquando
-5.919874	aliquid
-6.378957	aliquis
-6.583487	aliquo
-6.378957	aliquot
-5.679441	alis
-6.806065	alisal
-5.769649	alisanda
-7.211563	aliscans
-6.469291	aliso
-4.790722	alison
-5.514302	alison's
-6.885612	alisons
-6.504123	alistair
-5.442595	alister
-6.469291	alister's
-6.98307	aliston
-5.969877	alit
-6.378957	aliter
-7.211563	alithea
-6.120373	aliud
-6.629366	alium
-6.583487	alius
-5.614029	aliva
-6.407031	aliva's
-4.001245	alive
-6.504123	aliveness
-6.629366	aliwal
-4.98803	alix
-5.892421	alix's
-6.738858	alixandre
-5.618725	alixe
-6.352588	alixe's
-6.240468	alizay
-5.301418	alizon
-6.167841	alizon's
-6.68067	alka
-6.629366	alkahest
-5.213225	alkali
-6.077586	alkalies
-5.604786	alkaline
-6.437047	alkalis
-6.051237	alkaloid
-6.051237	alkaloids
-6.583487	alkanet
-6.407031	alkebar
-6.583487	alken
-6.184891	alkestis
-6.151435	alki
-6.469291	alkina
-6.304215	alkinoos
-6.105637	alkmaar
-6.806065	alkmeenon
-6.806065	alkoran
-7.211563	alkoum
-2.914279	all	-0.01699486
-6.352588	all'
-6.504123	all'ays
-6.68067	all'll
-4.884316	all's
-5.189742	alla
-6.68067	allaby
-4.824259	allah
-5.69044	allah's
-5.750046	allahabad
-6.437047	allahu
-6.378957	allai
-5.969877	allain
-6.120373	allaire
-6.437047	allait
-4.507953	allan
-5.303699	allan's
-6.68067	allanbay
-5.866601	allandale
-7.211563	allange
-6.738858	allans
-6.738858	allant
-6.98307	allantois
-6.352588	allaphair
-6.240468	allaraine
-5.324777	allard
-6.151435	allard's
-6.738858	allardi
-5.819155	allardyce
-6.135626	allarm
-6.151435	allarmed
-6.407031	allas
-6.541995	allaster
-6.437047	allat
-6.014488	allatoona
-6.378957	allavarg
-5.34693	allay
-6.202638	allay'd
-5.133727	allayed
-5.804425	allaying
-5.412207	allays
-6.026395	allbright
-6.407031	allbright's
-6.327729	allbutt
-5.901381	allchin
-6.151435	allcraft
-6.378957	allday
-5.308295	alle
-6.28191	alledge
-5.84223	alledged
-6.105637	alledging
-5.167463	allee
-6.240468	allee's
-6.167841	allees
-6.68067	allegany
-5.529413	allegation
-5.378343	allegations
-5.349463	allege
-4.656065	alleged
-6.327729	allegedly
-5.455371	alleges
-7.167587	allegewi
-6.583487	alleghania
-6.167841	alleghanies
-5.819155	alleghany
-6.68067	alleghenies
-5.797244	allegheny
-4.75959	allegiance
-6.327729	allegiances
-4.891335	alleging
-5.980608	allegoric
-5.124551	allegorical
-5.776385	allegorically
-5.322383	allegories
-6.68067	allegorist
-6.352588	allegorized
-6.407031	allegorizing
-4.998092	allegory
-5.811728	allegra
-6.469291	allegra's
-6.051237	allegre
-6.629366	allegre's
-6.469291	allegretti
-6.167841	allegretto
-6.327729	allegri
-6.184891	allegrignac
-5.370274	allegro
-6.221141	allein
-5.797244	alleluia
-6.407031	alleluias
-6.437047	allemagne
-7.211563	allemaine
-6.120373	allemand
-6.221141	allemande
-6.327729	allemands
-4.467459	allen
-5.26858	allen's
-6.541995	allenburg
-5.623473	allenby
-6.352588	allenby's
-6.327729	allendale
-6.469291	allende
-6.469291	allender
-7.167587	allendner
-6.885612	allenham
-6.378957	allens
-6.504123	allenson
-6.629366	allenstein
-6.885612	allenthorne
-6.167841	allentown
-5.737453	aller
-5.790179	allerdyce
-5.465207	allerdyke
-6.437047	allerdyke's
-6.184891	allergic
-6.469291	allergy
-6.629366	allerheiligen
-5.175897	allers
-6.469291	allersley
-5.834402	allerton
-6.469291	allerton's
-6.629366	allertssohn
-5.858325	alles
-6.352588	allesandro
-5.521792	alleviate
-5.436345	alleviated
-6.202638	alleviates
-5.797244	alleviating
-5.471889	alleviation
-5.763016	alleviations
-4.702168	alley
-6.541995	alley's
-6.28191	alleyn
-5.252032	alleyne
-6.167841	alleyne's
-4.85814	alleys
-5.819155	alleyway
-5.94918	alleyways
-5.763016	allez
-6.304215	allfather
-6.184891	allfired
-6.629366	allgaeuer
-6.184891	allgemeine
-6.806065	allgood
-6.469291	allhallows
-6.504123	alli
-6.629366	allia
-4.58721	alliance
-5.023716	alliances
-6.629366	allibone
-6.541995	allidap
-5.327183	allie
-6.091385	allie's
-4.628647	allied
-6.885612	allier
-4.602858	allies
-5.115564	alligator
-6.28191	alligator's
-5.170817	alligators
-6.885612	alligewi
-6.583487	allin
-6.304215	alling
-6.014488	allingham
-6.583487	allingham's
-6.077586	allington
-5.910529	allinson
-6.105637	allinson's
-6.077586	allis
-4.869766	allison
-5.668714	allison's
-6.98307	allisons
-5.386565	allister
-6.064211	allister's
-7.167587	allisters
-6.98307	alliston
-5.623473	alliteration
-6.352588	alliterations
-5.750046	alliterative
-6.583487	allium
-6.352588	allman
-5.980608	allmers
-6.504123	allnutt
-5.866601	allo
-6.407031	alloa
-6.629366	allobroges
-6.738858	allocate
-5.73129	allocated
-6.327729	allocation
-6.026395	allocution
-6.68067	allode
-6.407031	allodial
-5.533274	allonby
-6.091385	allonby's
-6.885612	allonbys
-6.806065	allonfield
-6.437047	allong
-5.553113	allons
-6.184891	alloo
-6.629366	allopath
-6.038639	allopathic
-6.738858	allopathist
-6.184891	allopathy
-6.541995	allor
-6.583487	allora
-7.167587	alloro
-6.437047	allosauri
-6.437047	allosaurus
-5.618725	allot
-5.959405	alloted
-5.317636	allotment
-5.455371	allotments
-6.629366	allotropic
-5.910529	allots
-6.352588	allott
-4.706192	allotted
-5.811728	allotting
-6.352588	allouez
-4.213369	allow
-5.628273	allow'd
-5.349463	allowable
-6.504123	allowably
-4.68095	allowance
-6.407031	allowanced
-5.198625	allowances
-5.618725	alloway
-6.469291	alloway's
-3.873466	allowed
-6.629366	allowence
-6.437047	alloweth
-5.763016	allowin
-4.31476	allowing
-4.497828	allows
-5.228334	alloy
-6.629366	alloyd
-5.674045	alloyed
-6.504123	alloying
-5.826711	alloys
-6.885612	allport
-6.469291	allready
-5.858325	alls
-6.583487	allsham
-6.541995	allsman
-6.541995	allso
-6.504123	allsop
-6.541995	allsopp
-5.783227	allspice
-5.834402	allston
-6.583487	allston's
-5.919874	allstone
-6.885612	allstyne
-7.167587	allthetime
-5.117049	allude
-4.430726	alluded	-0.4100902
-4.960207	alludes
-6.327729	alludin
-4.741677	alluding
-6.583487	allum
-6.541995	allumette
-6.504123	allur'd
-5.258164	allure
-5.037119	allured
-5.29915	allurement
-5.216954	allurements
-5.58687	allures
-4.821238	alluring
-5.565466	alluringly
-4.95608	allus
-4.613457	allusion
-4.675535	allusions
-5.668714	allusive
-6.260695	allusively
-6.135626	allusiveness
-5.412207	alluvial
-6.437047	alluvion
-5.959405	alluvium
-6.135626	alluz
-6.304215	allways
-6.68067	allwise
-6.541995	allworth
-5.750046	allworthy
-6.68067	allworthy's
-4.593401	ally
-5.866601	ally's
-5.804425	allying
-5.496124	allyn
-6.260695	allyn's
-6.184891	allyne
-6.105637	alm
-4.709671	alma
-5.578181	alma's
-6.98307	almacan
-5.929425	almack's
-6.541995	almacks
-6.68067	almaden
-6.202638	almagro
-5.618725	almah
-6.378957	almah's
-6.583487	almain
-5.763016	almamen
-5.260227	almanac
-6.304215	almanach
-5.549072	almanack
-6.002898	almanacks
-5.53717	almanacs
-5.969877	almansor
-6.135626	almanza
-6.120373	almanzor
-6.806065	almar
-6.738858	almarez
-6.629366	almas
-6.327729	almaviva
-5.279253	almayer
-5.84223	almayer's
-6.68067	almayne
-6.738858	almazan
-6.077586	almbach
-6.541995	almbach's
-6.469291	alme
-6.184891	almeda
-6.002898	almeida
-6.541995	almena
-7.108924	almendral
-6.583487	almeni
-6.014488	almer
-6.437047	almer's
-5.969877	almeria
-6.038639	almeric
-6.437047	almeryl
-6.98307	almesbury
-6.026395	almeyda
-6.68067	almichty
-6.378957	almidor
-6.629366	almightie
-6.28191	almightiness
-4.872299	almighty
-6.806065	almighty's
-6.469291	alminy
-5.533274	almira
-6.167841	almira's
-6.806065	almirah
-6.583487	almiranta
-6.378957	almirante
-5.99161	almiry
-6.504123	almo
-6.806065	almohad
-7.167587	almohades
-6.885612	almohads
-6.221141	almon
-6.469291	almona
-5.01305	almond
-5.222607	almonds
-5.628273	almoner
-6.091385	almoners
-6.885612	almont
-6.437047	almonte
-6.437047	almontes
-7.108924	almoravides
-5.811728	almos
-3.286454	almost
-7.108924	almoxarife
-7.108924	almroth
-4.875699	alms
-5.658246	almsgiving
-5.769649	almshouse
-5.69044	almshouses
-6.68067	almvik
-6.026395	almy
-6.014488	alnaschar
-7.211563	alnissa
-6.105637	alnwick
-6.002898	alo
-6.504123	aloan
-5.569664	aloe
-5.336944	aloes
-6.806065	aloetic
-4.289923	aloft
-5.866601	aloha
-5.93919	alois
-7.211563	aloisa
-7.167587	aloise
-6.304215	aloive
-5.811728	alon
-5.679441	alondra
-6.583487	alondra's
-3.366414	alone
-6.583487	alone's
-5.969877	aloneness
-3.391644	along	-0.1023903
-5.743704	alonga
-6.437047	alonger
-5.565466	alongshore
-4.20255	alongside
-6.202638	alongst
-5.658246	alonso
-4.932112	alonzo
-6.026395	alonzo's
-4.681495	aloof
-6.077586	aloofly
-5.035883	aloofness
-6.378957	alookin
-6.629366	aloon
-6.469291	aloose
-6.240468	alope
-6.352588	alopex
-5.442595	alora
-5.901381	alora's
-6.064211	alorcus
-5.674045	alors
-6.504123	alosha
-6.135626	alost
-4.23683	aloud
-6.541995	alouette
-5.618725	alow
-5.811728	aloys
-5.94918	aloysia
-5.514302	aloysius
-5.362352	alp
-5.533274	alpaca
-6.28191	alpacas
-6.98307	alpagata
-6.304215	alpagatas
-6.202638	alpaugh
-6.260695	alpen
-6.806065	alpenglow
-6.002898	alpenstock
-6.026395	alpenstocks
-6.407031	alpes
-6.352588	alph
-5.266477	alpha
-4.990246	alphabet
-5.99161	alphabetic
-5.674045	alphabetical
-5.674045	alphabetically
-5.707479	alphabets
-6.68067	alphaeus
-6.378957	alphege
-5.756483	alpheus
-7.108924	alphian
-6.202638	alphingham
-7.167587	alphingham's
-5.007236	alphonse
-6.260695	alphonse's
-5.99161	alphonsine
-6.541995	alphonsine's
-5.357151	alphonso
-6.28191	alphonso's
-6.260695	alphonsus
-6.98307	alpilles
-6.352588	alpin
-6.98307	alpin's
-6.629366	alpina
-4.879125	alpine
-6.885612	alpine's
-6.304215	alpines
-6.352588	alpini
-6.28191	alpinist
-6.378957	alpinists
-6.806065	alpino
-7.108924	alpins
-6.437047	alppain
-5.075924	alps
-7.211563	alpujarras
-6.885612	alraschid
-6.352588	alreadie
-3.502094	already
-6.469291	alreatty
-6.504123	alred
-5.811728	alresca
-6.135626	alresca's
-6.28191	alresford
-5.53717	alretty
-5.725214	alric
-6.629366	alric's
-5.71331	alright
-5.604786	alrina
-6.28191	alrina's
-6.738858	alruna
-5.638036	als
-5.191504	alsace
-6.469291	alsacian
-6.583487	alsacians
-6.738858	alsacien
-5.901381	alsatia
-5.569664	alsatian
-5.892421	alsatians
-6.038639	alscrip
-5.763016	alsi
-6.327729	alsi's
-6.091385	alsie
-3.213774	also
-6.327729	alsoe
-6.583487	alson
-6.260695	alsop
-6.806065	alster
-5.264384	alston
-6.064211	alston's
-7.211563	alstyne
-5.569664	alt
-5.521792	alta
-6.352588	altai
-6.738858	altaic
-6.091385	altair
-6.407031	altamaha
-6.806065	altamira
-5.573902	altamont
-6.378957	altamont's
-4.576796	altar
-6.28191	altar's
-6.120373	altara
-6.738858	altare
-6.304215	altarpiece
-4.820486	altars
-6.629366	altascar
-6.885612	altavilla
-6.352588	altdorf
-5.99161	alte
-6.352588	altemus
-5.684906	alten
-6.352588	alten's
-6.583487	altenberg
-6.091385	altenburg
-7.211563	altenfjord
-6.014488	altenheim
-6.504123	altenheim's
-6.437047	altenhof
-6.629366	altenstein
-4.746087	alter
-5.71331	alter'd
-6.504123	alter's
-6.202638	altera
-6.260695	alterable
-6.885612	alteram
-4.922503	alteration
-4.950976	alterations
-6.135626	alterative
-6.469291	alteratives
-5.187987	altercation
-5.573902	altercations
-4.394599	altered
-6.504123	altereth
-4.924407	altering
-6.327729	alterius
-4.772179	alternate
-4.892221	alternated
-4.261631	alternately
-5.643001	alternates
-4.758937	alternating
-5.349463	alternation
-5.322383	alternations
-4.876553	alternative
-5.892421	alternatively
-5.25611	alternatives
-6.68067	alternator
-6.738858	altero
-5.115564	alters
-6.469291	alterum
-6.407031	altesse
-6.437047	altgeld
-6.885612	alth
-6.151435	althaea
-6.352588	altham
-6.98307	altham's
-6.885612	althar
-5.049673	althea
-5.776385	althea's
-6.437047	althegither
-6.437047	althias
-7.167587	althing
-4.951993	altho
-6.120373	althora
-6.28191	althorp
-6.352588	althorpe
-7.108924	althorpe's
-6.407031	althotas
-3.374331	although	-0.02989842
-6.629366	alti
-6.327729	altiera
-6.327729	altieri
-7.108924	altifiorla
-7.211563	altifiorla's
-6.327729	altimeter
-6.738858	altimira
-6.738858	altis
-6.541995	altissimo
-5.034651	altitude
-5.283597	altitudes
-6.469291	altitudinous
-5.858325	altman
-6.407031	altman's
-7.167587	altmayer
-7.211563	altmore
-5.357151	alto
-6.469291	altogedder
-3.792675	altogether
-5.375637	alton
-6.629366	alton's
-6.184891	altona
-6.407031	altoncroft
-6.28191	altoona
-6.437047	altorf
-6.077586	altorius
-6.064211	altos
-6.407031	altoun
-6.738858	altoviti
-6.240468	altra
-6.469291	altre
-6.091385	altri
-6.68067	altringer
-6.260695	altringham
-6.68067	altringham's
-5.883643	altro
-6.738858	altrosen
-6.583487	altrui
-5.266477	altruism
-6.304215	altruist
-5.354573	altruistic
-6.327729	altruists
-5.850203	altruria
-6.077586	altrurian
-7.167587	altrurian's
-6.469291	altrurians
-6.806065	altsheler
-7.108924	altstadt
-7.211563	altstrasse
-6.504123	altum
-6.504123	alu
-6.051237	aluisi
-5.357151	alum
-7.167587	alumbagh
-6.327729	alumina
-5.707479	aluminium
-6.806065	aluminous
-5.359744	aluminum
-6.120373	alumnae
-5.561309	alumni
-6.002898	alumnus
-6.629366	alured
-5.892421	alurna
-6.407031	alus
-6.407031	alv
-5.11114	alva
-5.866601	alva's
-6.064211	alvan
-6.327729	alvanley
-6.28191	alvanly
-5.207693	alvar
-5.850203	alvar's
-5.430183	alvarado
-6.240468	alvarado's
-5.228334	alvarez
-6.629366	alvarez's
-5.919874	alvaro
-5.71331	alvays
-6.378957	alvedero
-6.260695	alverado
-6.98307	alvernia
-6.038639	alvez
-6.378957	alvez's
-6.541995	alvilda
-5.317636	alvin
-6.504123	alvin's
-6.541995	alving
-6.437047	alvino
-6.407031	alvinzi
-5.94918	alvira
-6.629366	alvira's
-6.806065	alvirah
-7.167587	alvirah's
-6.437047	alviro
-6.184891	alviry
-6.240468	alvord
-6.541995	alvyn
-5.638036	alwa
-6.240468	alwa's
-5.811728	alwaies
-6.437047	alwar
-5.0626	alway
-5.969877	alwayes
-3.307729	always
-6.541995	alwaysh
-6.28191	alwayth
-6.352588	alwin
-6.806065	alwood
-6.629366	alworthy
-5.372947	alwyn
-5.99161	alwyn's
-5.095292	alwynne
-5.866601	alwynne's
-7.211563	alwyth
-6.583487	aly
-6.327729	alyattes
-7.108924	alymer
-6.28191	alyona
-5.109675	alyosha
-6.077586	alyosha's
-6.28191	alyoshka
-6.091385	alypius
-7.108924	alyre
-5.553113	alys
-6.28191	alyssum
-6.202638	alzire
-6.407031	alzo
-6.002898	alzugaray
-3.911317	am
-6.105637	am'rous
-6.28191	am'zon
-5.565466	ama
-5.216954	amabel
-5.94918	amabel's
-6.469291	amabilis
-6.327729	amable
-6.738858	amaboona
-6.504123	amabuna
-7.211563	amabutu
-5.663448	amada
-6.738858	amadan
-6.541995	amadas
-5.725214	amadeo
-6.077586	amadeus
-6.437047	amadi
-6.378957	amadieu
-5.458625	amadis
-6.504123	amado
-5.980608	amador
-6.885612	amadour
-6.002898	amael
-6.68067	amagansett
-6.541995	amagay
-6.260695	amager
-6.583487	amah
-6.240468	amahagger
-6.885612	amaillou
-5.06788	amain
-5.919874	amaist
-6.541995	amajuba
-6.738858	amakoba
-6.885612	amakosa
-6.28191	amakosi
-6.437047	amal
-5.485572	amaldi
-6.014488	amaldi's
-5.811728	amalek
-6.135626	amalekite
-6.221141	amalekites
-5.804425	amalfi
-5.737453	amalgam
-5.892421	amalgamate
-5.315282	amalgamated
-6.437047	amalgamates
-6.014488	amalgamating
-5.421102	amalgamation
-6.738858	amalgamator
-5.2623	amalia
-6.167841	amalia's
-5.811728	amalie
-6.738858	amalivaca
-6.541995	amalon
-6.077586	amalric
-6.583487	amalric's
-6.541995	amalthea
-6.28191	amalwin
-6.120373	aman
-6.378957	amana
-6.738858	amand
-4.89937	amanda
-5.737453	amanda's
-7.108924	amandabele
-6.583487	amandas
-7.108924	amandebeli
-6.026395	amandine
-5.769649	amandus
-6.407031	amandy
-5.129115	amang
-6.629366	amanguchi
-6.437047	amangwane
-6.240468	amani
-6.327729	amanieu
-6.221141	amanita
-6.407031	amankee
-6.352588	amans
-6.120373	amant
-5.797244	amante
-6.504123	amantes
-6.304215	amantha
-6.504123	amanthis
-6.738858	amanthus
-6.738858	amantis
-6.68067	amantium
-6.583487	amants
-6.885612	amantzin
-6.202638	amanuenses
-5.633127	amanuensis
-6.541995	amanus
-6.738858	amapaia
-6.583487	amapakati
-6.541995	amapala
-6.885612	amapolise
-5.850203	amar
-5.875039	amara
-6.504123	amarante
-5.776385	amaranth
-6.98307	amarantha
-6.091385	amaranthe
-6.077586	amaranthine
-6.260695	amaranths
-6.68067	amaranthus
-6.064211	amare
-6.105637	amarendra
-6.407031	amari
-6.541995	amarilla
-6.120373	amarillo
-5.184498	amarilly
-6.167841	amarilly's
-6.327729	amarinth
-6.240468	amarita
-6.504123	amarja
-6.806065	amarna
-6.437047	amaru
-5.022518	amaryllis
-6.407031	amas
-5.750046	amasa
-6.407031	amasai
-6.378957	amasi
-6.437047	amasia
-6.304215	amasidia
-5.600237	amasis
-5.653104	amass
-5.274952	amassed
-6.407031	amasses
-5.609383	amassing
-7.211563	amastan
-6.504123	amastris
-7.211563	amasuka
-6.885612	amaswazi
-6.014488	amat
-5.969877	amata
-6.28191	amaterasu
-4.675535	amateur
-6.352588	amateur's
-6.583487	amateurdom
-5.53717	amateurish
-6.407031	amateurishly
-6.151435	amateurishness
-4.965421	amateurs
-5.892421	amati
-6.184891	amative
-6.064211	amativeness
-6.304215	amato
-7.108924	amatola
-6.885612	amatolas
-6.469291	amatonga
-6.885612	amatongas
-6.504123	amatoor
-5.47527	amatory
-6.885612	amats
-6.304215	amaurosis
-5.633127	amaury
-6.738858	amavit
-6.583487	amawombe
-5.969877	amaxosa
-5.99161	amayeka
-6.629366	amayeka's
-5.892421	amaz'd
-5.901381	amazan
-5.056088	amaze
-4.344104	amazed
-5.455371	amazedly
-4.476893	amazement
-6.504123	amazements
-5.578181	amazes
-5.99161	amaziah
-5.769649	amazin
-4.750541	amazing
-4.803538	amazingly
-5.160832	amazon
-6.407031	amazon's
-6.738858	amazonas
-6.806065	amazones
-6.738858	amazonia
-5.643001	amazonian
-5.332036	amazons
-6.583487	amazulu
-6.151435	amba
-6.437047	ambages
-6.806065	amban
-6.167841	ambar
-6.541995	ambas
-6.583487	ambassadeurs
-4.693668	ambassador
-5.875039	ambassador's
-6.077586	ambassadorial
-4.846816	ambassadors
-6.352588	ambassadorship
-5.811728	ambassadress
-6.629366	ambassadresses
-6.541995	ambassage
-6.738858	ambau
-4.693668	amber
-6.437047	amber's
-6.806065	amberdale
-6.98307	amberdon
-5.684906	ambergris
-6.738858	amberieu
-5.790179	amberley
-6.407031	amberley's
-6.68067	amberleys
-6.885612	ambermere
-6.407031	ambers
-5.725214	amberson
-6.68067	amberson's
-6.68067	ambersons
-6.541995	ambialet
-5.980608	ambidextrous
-5.769649	ambient
-6.68067	ambient's
-7.167587	ambigu
-5.737453	ambiguities
-5.344412	ambiguity
-5.010715	ambiguous
-5.489061	ambiguously
-6.327729	ambiorix
-6.541995	ambit
-4.170443	ambition
-5.565466	ambition's
-6.437047	ambitionless
-4.592956	ambitions
-4.540223	ambitious
-5.541101	ambitiously
-5.445754	amble
-5.117049	ambled
-6.68067	amblen
-5.643001	ambler
-5.797244	ambles
-6.105637	ambleside
-6.541995	ambleteuse
-5.186239	ambling
-6.151435	ambo
-5.701725	amboise
-6.120373	amboy
-5.99161	amboyna
-6.202638	amboyne
-6.541995	ambracia
-6.806065	ambraciots
-7.108924	ambree
-6.151435	ambrizette
-6.629366	ambrogi
-6.469291	ambrogio
-5.684906	ambroise
-6.98307	ambrones
-6.806065	ambrons
-4.807896	ambrose
-5.769649	ambrose's
-7.108924	ambroses
-5.433253	ambrosia
-5.409282	ambrosial
-6.260695	ambrosian
-7.108924	ambrosianae
-6.151435	ambrosine
-5.465207	ambrosio
-6.014488	ambrosio's
-5.737453	ambrosius
-6.378957	ambrotox
-6.541995	ambrotype
-6.68067	ambrumesy
-6.352588	ambrym
-5.01305	ambulance
-5.272818	ambulances
-6.68067	ambulando
-6.304215	ambulant
-6.469291	ambulating
-6.541995	ambulation
-5.866601	ambulatory
-5.892421	ambulinia
-6.806065	ambur
-7.167587	amburgh
-5.381066	ambuscade
-6.120373	ambuscaded
-5.618725	ambuscades
-6.583487	ambuscading
-5.098131	ambush
-6.304215	ambush'd
-5.277097	ambushed
-5.604786	ambushes
-6.135626	ambushing
-6.583487	ambushment
-6.68067	amby
-5.707479	ame
-6.629366	ameba
-6.541995	amede
-5.301418	amedee
-6.202638	amedee's
-6.135626	amedeo
-6.378957	amedroz
-7.108924	amee
-6.167841	ameen
-5.804425	ameer
-7.108924	ameer's
-6.260695	ameera
-6.28191	ameerah
-6.68067	ameers
-6.541995	ameinias
-6.002898	amel
-4.621936	amelia
-5.430183	amelia's
-5.181037	amelie
-5.969877	amelie's
-7.108924	amelineau
-5.980608	ameliorate
-5.679441	ameliorated
-6.407031	ameliorates
-5.93919	ameliorating
-5.397775	amelioration
-5.804425	ameliorations
-7.108924	ameliorator
-5.160832	amelius
-6.077586	amelot
-6.304215	amelrosa
-7.211563	amelyn
-6.806065	amem
-4.781008	amen
-6.629366	amena
-6.28191	amenability
-5.12304	amenable
-6.352588	amenaide
-6.378957	amenartas
-5.94918	amenche
-5.334483	amend
-5.980608	amenda
-6.378957	amendatory
-5.910529	amende
-4.804986	amended
-5.790179	amending
-4.968579	amendment
-5.258164	amendments
-5.19505	amends
-6.378957	amenemhat
-6.304215	amenhetep
-5.99161	amenhotep
-5.826711	ameni
-6.437047	ameni's
-5.274952	amenities
-5.521792	amenity
-5.919874	amenmeses
-6.077586	amenophis
-6.68067	amenorrhea
-5.959405	amenothes
-5.811728	amens
-6.352588	amense
-6.240468	ament
-6.28191	amenti
-5.725214	amer
-6.407031	amer's
-6.327729	amerced
-6.378957	amere
-5.756483	ameres
-4.296843	america
-5.207693	america's
-5.919874	americain
-5.892421	americaine
-6.469291	americaines
-6.167841	americains
-3.935308	american
-5.858325	american's
-5.756483	americana
-6.738858	americani
-6.167841	americanised
-5.266477	americanism
-5.811728	americanisms
-6.583487	americanitis
-5.866601	americanization
-6.504123	americanize
-5.725214	americanized
-6.28191	americanizing
-5.557192	americano
-5.679441	americanos
-4.423437	americans
-6.120373	americanus
-6.051237	americas
-6.091385	americo
-6.051237	americus
-5.638036	amerigo
-6.28191	amerigo's
-6.184891	amerika
-6.504123	amerikaner
-6.68067	amerikay
-7.108924	amerikee
-6.738858	amerikin
-6.077586	ameriky
-7.108924	amerind
-6.885612	amerinds
-6.184891	amerique
-6.437047	amersfoort
-6.352588	amersham
-7.167587	amersteth
-6.68067	amery
-5.088275	ames
-6.184891	ames's
-5.910529	amesa
-6.378957	amesa's
-5.614029	amesbury
-6.504123	amesbury's
-6.629366	amestris
-6.541995	amet
-5.240022	amethyst
-5.84223	amethystine
-5.549072	amethysts
-7.167587	amfalula
-5.99161	amfortas
-6.151435	amgiad
-6.091385	amhara
-6.327729	amharic
-5.093879	amherst
-5.69044	amherst's
-6.135626	amherstburg
-6.541995	amherstburgh
-6.98307	amhersts
-6.407031	amhurst
-5.392133	ami
-6.504123	ami's
-6.184891	amiabilities
-4.859781	amiability
-4.559977	amiable
-6.105637	amiableness
-4.714353	amiably
-5.99161	amias
-6.806065	amiata
-6.221141	amica
-6.378957	amicability
-5.234139	amicable
-4.980362	amicably
-6.051237	amice
-5.883643	amici
-6.806065	amicia
-6.327729	amicis
-6.407031	amicitia
-6.583487	amicitiae
-5.696046	amico
-6.885612	amicos
-5.980608	amicus
-3.71949	amid	-0.1418209
-6.002898	amida
-6.68067	amidas
-6.378957	amideo
-6.026395	amidmost
-6.077586	amidon
-5.804425	amidship
-4.814516	amidships
-3.931119	amidst	-0.1698389
-5.959405	amie
-5.638036	amiel
-6.064211	amiel's
-5.465207	amiens
-6.504123	amies
-6.629366	amiet
-6.407031	amiga
-6.806065	amighty
-5.320004	amigo
-5.826711	amigos
-6.504123	amilcar
-6.806065	amildar
-6.437047	amile
-5.969877	amin
-5.790179	amina
-5.763016	aminadab
-5.317636	amine
-6.105637	amine's
-5.397775	aminta
-5.94918	aminta's
-6.806065	amiot
-5.756483	amir
-6.98307	amir's
-6.437047	amiral
-6.077586	amiria
-5.719221	amis
-6.504123	amishka
-4.947943	amiss
-6.504123	amisse
-6.221141	amissing
-6.806065	amistad
-6.135626	amita
-6.504123	amitabha
-6.064211	amitie
-6.151435	amities
-5.155924	amity
-6.077586	amma
-6.68067	ammad
-6.806065	ammal
-6.260695	amman
-6.135626	ammata
-6.541995	ammen
-6.105637	ammer
-5.969877	ammergau
-6.583487	ammersmith
-6.437047	ammi
-6.064211	ammianus
-6.437047	ammick
-6.151435	ammidon
-6.738858	ammidon's
-7.108924	ammidons
-6.504123	ammiel
-6.437047	amminadab
-6.629366	amminadab's
-6.304215	ammo
-5.471889	ammon
-6.28191	ammon's
-5.394945	ammonia
-6.469291	ammoniac
-6.167841	ammoniacal
-6.327729	ammoniated
-6.378957	ammonite
-6.002898	ammonites
-6.378957	ammonium
-6.026395	ammonius
-6.437047	ammophila
-4.664902	ammunition
-6.629366	ammunitions
-6.151435	amn't
-6.135626	amna
-6.738858	amneran
-6.327729	amneris
-5.901381	amnesia
-6.541995	amnestied
-5.565466	amnesty
-6.738858	amnion
-6.738858	amniotic
-6.806065	amnis
-5.980608	amnon
-5.743704	amo
-5.811728	amochol
-5.866601	amoeba
-6.151435	amok
-6.378957	amokeat
-6.504123	amole
-6.437047	amomma
-6.407031	amomum
-5.529413	amon
-6.407031	amona
-6.629366	amonasro
-3.239716	among	-0.1261556
-3.719014	amongst	-0.1833121
-6.120373	amontillado
-6.68067	amoor
-5.234139	amor
-6.504123	amoral
-5.719221	amore
-6.437047	amorem
-6.327729	amores
-5.980608	amoret
-6.806065	amoret's
-6.504123	amoretti
-6.98307	amorgos
-6.504123	amori
-6.541995	amorians
-6.583487	amorini
-6.260695	amoris
-6.240468	amorist
-6.68067	amorite
-6.504123	amorites
-6.738858	amoros
-6.304215	amorosa
-6.202638	amoroso
-4.881713	amorous
-5.541101	amorously
-6.026395	amorousness
-5.59128	amorphous
-6.629366	amort
-4.939955	amory
-5.811728	amory's
-4.655551	amos
-5.929425	amos's
-6.407031	amoshee
-5.94918	amost
-7.211563	amoud
-4.421334	amount
-4.401416	amounted	-0.5682018
-4.475533	amounting	-0.3995326
-4.584146	amounts
-5.181037	amour
-6.68067	amoureaux
-6.407031	amourette
-6.077586	amourettes
-6.260695	amoureuse
-6.437047	amoureuses
-6.091385	amoureux
-5.224508	amours
-6.064211	amoy
-6.184891	amoyah
-6.68067	amoz
-6.504123	amp
-6.885612	ampanam
-6.002898	amparito
-6.327729	amparito's
-6.202638	amparo
-6.378957	ampelopsis
-6.437047	amperage
-5.94918	ampere
-6.304215	amperes
-6.352588	ampersand
-6.806065	ampezzo
-6.583487	amphi
-6.304215	amphiaraus
-6.378957	amphib
-5.99161	amphibia
-5.756483	amphibian
-5.826711	amphibians
-5.344412	amphibious
-6.583487	amphibs
-6.629366	amphictyonic
-5.600237	amphillis
-6.28191	amphinomus
-5.858325	amphion
-6.437047	amphion's
-6.583487	amphioxus
-6.026395	amphipolis
-5.633127	amphitheater
-6.260695	amphitheaters
-5.181037	amphitheatre
-5.750046	amphitheatres
-6.304215	amphitheatrical
-6.583487	amphitheatrically
-5.901381	amphitrite
-6.437047	amphitrite's
-5.737453	amphitryon
-6.469291	amphitryon's
-6.583487	amphitryons
-6.504123	ampho
-5.892421	amphora
-5.883643	amphorae
-6.304215	amphoras
-6.583487	amphris
-6.541995	amphytrion
-4.493205	ample
-5.569664	ampler
-6.105637	amplest
-5.541101	amplification
-5.969877	amplifications
-5.308295	amplified
-6.184891	amplifier
-6.304215	amplifiers
-6.135626	amplifies
-5.797244	amplify
-5.790179	amplifying
-5.310611	amplitude
-6.378957	amplitudes
-6.407031	amplius
-4.685883	amply
-6.002898	ampoule
-6.68067	amps
-6.541995	ampthill
-6.68067	ampton
-6.407031	ampudia
-6.541995	ampulla
-5.858325	amputate
-5.503304	amputated
-5.969877	amputating
-5.362352	amputation
-5.901381	amputations
-6.28191	amr
-5.858325	amra
-5.811728	amrah
-5.919874	amram
-6.629366	amran
-5.684906	amraphel
-6.407031	amraphel's
-5.582504	amrei
-6.407031	amrei's
-6.28191	amrita
-6.541995	amritsar
-6.738858	amritsir
-6.68067	amritzar
-6.135626	amro
-6.469291	amrou
-5.929425	amru
-6.583487	amrud
-6.504123	ams
-6.28191	amschel
-6.68067	amsden
-6.98307	amsden's
-6.469291	amsdorf
-6.304215	amstel
-6.304215	amster
-5.220715	amsterdam
-6.504123	amtmann
-6.885612	amtshauptmann
-7.108924	amtshauptmann's
-6.437047	amu
-5.35201	amuba
-6.304215	amuba's
-6.091385	amuck
-6.504123	amuel
-6.541995	amuk
-5.406376	amulet
-5.38934	amulets
-6.105637	amulius
-5.783227	amulya
-6.260695	amun
-6.304215	amundsen
-6.378957	amunition
-6.541995	amur
-5.866601	amurath
-6.541995	amurrican
-6.68067	amurricans
-6.68067	amurru
-6.407031	amus'd
-4.851633	amuse
-4.153454	amused
-5.305991	amusedly
-4.314525	amusement
-6.885612	amusement's
-4.651968	amusements
-6.541995	amuser
-5.170817	amuses
-5.929425	amusin
-4.460843	amusing
-5.421102	amusingly
-6.352588	amusis
-6.469291	amwell
-4.371548	amy
-5.129115	amy's
-5.674045	amyas
-6.68067	amyas's
-6.407031	amycus
-6.504123	amygdaloid
-6.240468	amyl
-6.738858	amyle
-5.674045	amyntas
-6.151435	amyot
-7.108924	amyot's
-6.28191	amys
-6.504123	amytis
-5.301418	amzi
-6.014488	amzi's
-2.929723	an
-4.6272	an'
-6.014488	an'll
-5.875039	an's
-5.075924	an't
-6.304215	an'thing
-5.152683	ana
-6.583487	ana's
-6.28191	anaa
-5.969877	anabaptist
-5.776385	anabaptists
-6.240468	anabasis
-5.892421	anabel
-6.629366	anabela
-6.184891	anabella
-6.135626	anabelle
-6.629366	anabelle's
-6.738858	anacalypsis
-6.437047	anacaona
-6.629366	anacapri
-6.629366	anacharis
-5.875039	anacharsis
-5.40349	anachronism
-5.557192	anachronisms
-5.980608	anachronistic
-5.701725	anaconda
-6.135626	anacondas
-6.68067	anacostia
-5.553113	anacreon
-6.091385	anacreon's
-6.014488	anacreontic
-6.437047	anacreontics
-6.541995	anactoria
-6.541995	anadi
-7.108924	anadir
-6.352588	anadyomene
-6.738858	anadyr
-5.663448	anaemia
-5.359744	anaemic
-5.763016	anaesthesia
-5.707479	anaesthetic
-5.811728	anaesthetics
-6.378957	anaesthetized
-6.885612	anafarta
-6.738858	anagni
-6.738858	anagnos
-6.064211	anagram
-5.850203	anagrams
-6.504123	anah
-6.504123	anaheim
-6.437047	anaho
-5.910529	anahuac
-6.28191	anais
-6.504123	anaiteum
-5.93919	anaitis
-5.756483	anak
-6.437047	anak's
-6.352588	anakim
-6.885612	anakims
-6.038639	anal
-6.221141	analagous
-6.806065	analects
-6.504123	analog
-5.959405	analogical
-6.28191	analogically
-5.065232	analogies
-4.869766	analogous
-5.834402	analogue
-5.969877	analogues
-4.917777	analogy
-6.806065	analostan
-5.496124	analyse
-5.332036	analysed
-5.279253	analyses
-5.533274	analysing
-4.571681	analysis
-5.557192	analyst
-6.885612	analyst's
-5.94918	analysts
-5.461904	analytic
-5.149466	analytical
-5.804425	analytically
-6.583487	analytikos
-6.629366	analyzation
-5.378343	analyze
-5.138389	analyzed
-6.135626	analyzer
-6.806065	analyzers
-5.797244	analyzes
-5.303699	analyzing
-6.583487	anam
-6.352588	anamal
-6.504123	anamals
-6.202638	anan
-6.629366	ananas
-5.312941	ananda
-5.910529	ananda's
-6.469291	anandraz
-5.312941	ananias
-6.98307	ananoff
-6.378957	ananta
-6.202638	ananus
-6.541995	anany
-6.077586	ananzi
-6.583487	anapaest
-6.327729	anapaestic
-6.260695	anapaests
-6.68067	anapest
-6.352588	anapestic
-6.260695	anaphylaxis
-6.184891	anarch
-5.750046	anarchic
-5.790179	anarchical
-6.437047	anarchies
-5.359744	anarchism
-5.120034	anarchist
-6.885612	anarchist's
-5.623473	anarchistic
-5.108215	anarchists
-6.541995	anarchs
-4.774877	anarchy
-6.038639	anarky
-6.167841	anas
-6.68067	anasco
-6.885612	anashuya
-6.885612	anastacia
-5.969877	anastacio
-5.769649	anastase
-7.108924	anastasi
-5.332036	anastasia
-6.091385	anastasia's
-5.69044	anastasie
-5.892421	anastasio
-5.701725	anastasius
-6.583487	anastatia
-5.969877	anat
-7.167587	anat's
-6.806065	anatapein
-6.629366	anatha
-5.165796	anathema
-5.344412	anathemas
-6.407031	anathematise
-5.858325	anathematised
-6.120373	anathematising
-6.167841	anathematize
-5.578181	anathematized
-6.378957	anathematizes
-5.797244	anathematizing
-6.28191	anathoth
-6.28191	anatol
-5.362352	anatole
-6.541995	anatole's
-6.240468	anatolia
-6.202638	anatolian
-7.167587	anatolie
-6.378957	anatomic
-5.165796	anatomical
-5.834402	anatomically
-6.583487	anatomie
-6.026395	anatomies
-6.504123	anatomise
-6.504123	anatomised
-5.696046	anatomist
-6.98307	anatomist's
-5.648023	anatomists
-6.583487	anatomize
-6.304215	anatomized
-6.469291	anatomizing
-4.882579	anatomy
-6.806065	anatta
-6.504123	anax
-5.514302	anaxagoras
-6.469291	anaxibius
-6.260695	anaximander
-6.352588	anaximenes
-6.629366	anaya
-5.826711	anazeh
-6.327729	anazeh's
-6.437047	ancaster
-5.448936	ance
-6.167841	ancel
-6.806065	ancelles
-6.541995	ancenis
-4.785145	ancestor
-6.167841	ancestor's
-4.522084	ancestors
-4.949963	ancestral
-5.510605	ancestress
-6.038639	ancestresses
-4.811561	ancestry
-6.629366	ancetres
-6.378957	anch
-6.885612	ancha
-6.28191	anche
-6.738858	anchel
-5.518031	anchises
-6.629366	anchitherium
-4.711421	anchor
-6.064211	anchor'd
-6.221141	anchor's
-5.06788	anchorage
-5.969877	anchorages
-4.633505	anchored
-6.629366	anchoress
-6.469291	anchoret
-5.34693	anchoring
-5.569664	anchorite
-6.504123	anchorite's
-5.725214	anchorites
-5.0484	anchors
-5.565466	anchovies
-5.684906	anchovy
-5.929425	ancien
-6.202638	ancienne
-6.327729	anciens
-4.172635	ancient
-6.806065	ancient's
-6.437047	ancienter
-6.68067	ancientest
-5.296894	anciently
-6.68067	ancientness
-6.407031	ancientry
-5.482111	ancients
-6.437047	ancilla
-6.135626	ancillary
-5.94918	ancle
-6.077586	ancles
-6.68067	ancoats
-6.304215	ancon
-5.804425	ancona
-6.304215	ancor
-6.167841	ancora
-6.68067	ancre
-6.240468	ancus
-7.108924	ancyra
-2.379136	and
-5.623473	and'
-5.883643	and'll
-5.811728	and's
-6.105637	anda
-6.504123	andalucia
-6.541995	andalucian
-5.783227	andalusia
-5.397775	andalusian
-6.260695	andalusians
